{"learner":{"attributes":{"best_iteration":"171","best_ntree_limit":"172","scikit_learn":"{\"n_estimators\": 172, \"objective\": \"reg:squarederror\", \"max_depth\": 6, \"max_leaves\": null, \"max_bin\": null, \"grow_policy\": null, \"learning_rate\": null, \"verbosity\": null, \"booster\": null, \"tree_method\": null, \"gamma\": null, \"min_child_weight\": 6, \"max_delta_step\": null, \"subsample\": null, \"sampling_method\": null, \"colsample_bytree\": null, \"colsample_bylevel\": null, \"colsample_bynode\": null, \"reg_alpha\": null, \"reg_lambda\": null, \"scale_pos_weight\": null, \"base_score\": null, \"missing\": NaN, \"num_parallel_tree\": null, \"random_state\": null, \"n_jobs\": null, \"monotone_constraints\": null, \"interaction_constraints\": null, \"importance_type\": null, \"gpu_id\": null, \"validate_parameters\": null, \"predictor\": null, \"enable_categorical\": false, \"max_cat_to_onehot\": null, \"eval_metric\": null, \"early_stopping_rounds\": null, \"callbacks\": null, \"kwargs\": {\"eta\": 0.1, \"njobs\": 1}, \"_estimator_type\": \"regressor\"}"},"feature_names":[],"feature_types":[],"gradient_booster":{"model":{"gbtree_model_param":{"num_parallel_tree":"1","num_trees":"172","size_leaf_vector":"0"},"tree_info":[0,0,0,0,0,0,0,0,0,0,0,0,0,0,0,0,0,0,0,0,0,0,0,0,0,0,0,0,0,0,0,0,0,0,0,0,0,0,0,0,0,0,0,0,0,0,0,0,0,0,0,0,0,0,0,0,0,0,0,0,0,0,0,0,0,0,0,0,0,0,0,0,0,0,0,0,0,0,0,0,0,0,0,0,0,0,0,0,0,0,0,0,0,0,0,0,0,0,0,0,0,0,0,0,0,0,0,0,0,0,0,0,0,0,0,0,0,0,0,0,0,0,0,0,0,0,0,0,0,0,0,0,0,0,0,0,0,0,0,0,0,0,0,0,0,0,0,0,0,0,0,0,0,0,0,0,0,0,0,0,0,0,0,0,0,0,0,0,0,0,0,0],"trees":[{"base_weights":[1.1963167E2,1.0653577E2,1.3795288E2,1.0871493E2,7.114286E1,1.3011806E2,1.6115741E2,9.6531555E1,1.12522316E2,5.683582E1,8.048421E1,1.4515576E2,1.234266E2,1.7448976E2,1.47107E2,1.0852889E2,8.943528E1,1.2341544E2,1.0956712E2,5.0817307E1,7.284375E1,1.3628958E2,1.5678378E2,1.2764537E2,1.09935745E2,1.6404402E2,1.9177325E2,9.1290985E1,6.2931034E1,1.0917117E2,1.2830705E2,9.866157E1,1.1204644E2,5.5903225E1,4.1340908E1,1.445677E2,1.6807222E2,1.3046518E2,1.0580645E2,9.985776E1,1.17839554E2,9.246912E1,7.307407E1,9.946329E1,6.222222E1,1.0817959E2,1.1734757E2,6.4125E1,3.7541668E1,1.25837555E2,1.382252E2,1.0335052E2,7.7925E1],"categories":[],"categories_nodes":[],"categories_segments":[],"categories_sizes":[],"default_left":[1,1,1,1,1,1,1,1,1,1,0,1,1,1,0,0,1,1,1,1,0,0,1,1,1,0,0,1,0,0,0,1,1,1,0,0,0,1,0,1,0,0,0,0,0,0,0,0,0,0,0,0,0],"id":0,"left_children":[1,3,5,7,9,11,13,15,17,19,-1,21,23,25,-1,-1,27,29,31,33,-1,-1,35,37,39,-1,-1,41,-1,-1,-1,43,45,47,-1,-1,-1,49,-1,51,-1,-1,-1,-1,-1,-1,-1,-1,-1,-1,-1,-1,-1],"loss_changes":[1.105072E6,2.02514E5,3.32092E5,1.08166E5,1.694275E4,1.28694E5,6.5371E4,4.29085E4,4.9218E4,2.7533125E3,0E0,2.4303E4,4.3735E4,1.25925E4,0E0,0E0,1.36335E4,1.44205E4,3.064E4,1.9510938E2,0E0,0E0,1.214E3,3.343E4,8.067E3,0E0,0E0,1.098E3,0E0,0E0,0E0,2.40025E3,1.2908E4,2.2725469E3,0E0,0E0,0E0,6.846E3,0E0,8.32625E2,0E0,0E0,0E0,0E0,0E0,0E0,0E0,0E0,0E0,0E0,0E0,0E0,0E0],"parents":[2147483647,0,0,1,1,2,2,3,3,4,4,5,5,6,6,7,7,8,8,9,9,11,11,12,12,13,13,16,16,17,17,18,18,19,19,22,22,23,23,24,24,27,27,31,31,32,32,33,33,37,37,39,39],"right_children":[2,4,6,8,10,12,14,16,18,20,-1,22,24,26,-1,-1,28,30,32,34,-1,-1,36,38,40,-1,-1,42,-1,-1,-1,44,46,48,-1,-1,-1,50,-1,52,-1,-1,-1,-1,-1,-1,-1,-1,-1,-1,-1,-1,-1],"split_conditions":[1.7379586E-1,1.5161058E0,1.8333929E0,-9.536743E-7,-9.536743E-7,-5.51125E-1,-2.3086062E-1,-4.7686696E-1,-7.1907824E-1,-3.3572954E-1,8.048421E0,3.1937456E-1,-9.536743E-7,-9.536743E-7,1.47107E1,1.0852889E1,-9.536743E-7,-9.9083364E-1,-9.1804427E-1,-9.536743E-7,7.284375E0,1.3628959E1,-9.536743E-7,1.4107945E0,-9.536743E-7,1.6404402E1,1.9177326E1,-9.536743E-7,6.2931037E0,1.0917117E1,1.2830706E1,-1.1072966E0,-9.536743E-7,-9.536743E-7,4.134091E0,1.4456771E1,1.6807222E1,-9.536743E-7,1.0580646E1,-9.536743E-7,1.1783956E1,9.246912E0,7.3074074E0,9.946329E0,6.2222223E0,1.0817959E1,1.1734757E1,6.4125E0,3.7541668E0,1.25837555E1,1.382252E1,1.0335052E1,7.7925005E0],"split_indices":[1,0,1,35,35,0,0,0,0,1,0,1,3,6,0,0,17,1,1,3,0,0,32,0,38,0,0,25,0,0,0,1,38,11,0,0,0,37,0,19,0,0,0,0,0,0,0,0,0,0,0,0,0],"split_type":[0,0,0,0,0,0,0,0,0,0,0,0,0,0,0,0,0,0,0,0,0,0,0,0,0,0,0,0,0,0,0,0,0,0,0,0,0,0,0,0,0,0,0,0,0,0,0,0,0,0,0,0,0],"sum_hessian":[4.666E3,2.725E3,1.941E3,2.565E3,1.6E2,1.456E3,4.85E2,6.17E2,1.948E3,6.6E1,9.4E1,4.42E2,1.014E3,2.43E2,2.42E2,2.24E2,3.93E2,4.07E2,1.541E3,5.1E1,1.5E1,2.58E2,1.84E2,7.66E2,2.48E2,1.58E2,8.5E1,3.65E2,2.8E1,1.1E2,2.97E2,2.93E2,1.248E3,3E1,2.1E1,9.5E1,8.9E1,6.74E2,9.2E1,1.15E2,1.33E2,3.39E2,2.6E1,2.85E2,8E0,7.34E2,5.14E2,1.9E1,1.1E1,4.33E2,2.41E2,9.6E1,1.9E1],"tree_param":{"num_deleted":"0","num_feature":"41","num_nodes":"53","size_leaf_vector":"0"}},{"base_weights":[1.0773019E2,9.592834E1,1.2424106E2,9.788091E1,6.421263E1,1.17182976E2,1.4514516E2,8.693293E1,1.0130214E2,5.1474407E1,7.252051E1,1.3074152E2,1.1114985E2,1.571866E2,1.3245683E2,1.0297799E2,8.257305E1,1.111321E2,9.863552E1,4.6010593E1,6.601465E1,1.2271324E2,1.412744E2,9.305661E1,1.1370247E2,1.477428E2,1.7281892E2,1.0937652E2,9.0429825E1,8.423127E1,5.8562164E1,9.835241E1,1.155194E2,8.88504E1,1.0085985E2,5.064086E1,3.7394733E1,1.3026152E2,1.5145175E2,9.8502914E1,6.319994E1,1.1908969E2,1.0646234E2,8.462575E1,5.1513145E1,4.1893005E1,6.445665E1,8.9551735E1,5.669136E1,1.0349836E2,9.4410126E1,5.8033127E1,3.410035E1,1.004774E2,6.540005E1,7.6616295E1,4.4516922E1,1.2270399E2,1.0486848E2,9.6066185E1,1.0928923E2],"categories":[],"categories_nodes":[],"categories_segments":[],"categories_sizes":[],"default_left":[1,1,1,1,1,1,1,1,1,1,0,1,1,1,0,1,1,1,1,1,0,0,1,1,1,0,0,0,0,1,1,0,0,1,1,1,0,0,0,1,1,1,1,0,0,0,0,0,0,0,0,0,0,0,0,0,0,0,0,0,0],"id":1,"left_children":[1,3,5,7,9,11,13,15,17,19,-1,21,23,25,-1,27,29,31,33,35,-1,-1,37,39,41,-1,-1,-1,-1,43,45,-1,-1,47,49,51,-1,-1,-1,53,55,57,59,-1,-1,-1,-1,-1,-1,-1,-1,-1,-1,-1,-1,-1,-1,-1,-1,-1,-1],"loss_changes":[8.97492E5,1.62528E5,2.6952E5,8.7304E4,1.330525E4,1.04652E5,5.3433E4,3.47285E4,4.0128E4,2.2854531E3,0E0,2.0124E4,3.6297E4,1.04885E4,0E0,3.8625E2,1.461675E4,1.15145E4,2.4601E4,1.8077344E2,0E0,0E0,1.0065E3,1.5076375E4,2.184E4,0E0,0E0,0E0,0E0,1.53875E3,7.386875E2,0E0,0E0,1.55425E3,1.1484E4,1.8114844E3,0E0,0E0,0E0,5.53125E2,2.354414E3,1.27805E4,8.745E2,0E0,0E0,0E0,0E0,0E0,0E0,0E0,0E0,0E0,0E0,0E0,0E0,0E0,0E0,0E0,0E0,0E0,0E0],"parents":[2147483647,0,0,1,1,2,2,3,3,4,4,5,5,6,6,7,7,8,8,9,9,11,11,12,12,13,13,15,15,16,16,17,17,18,18,19,19,22,22,23,23,24,24,29,29,30,30,33,33,34,34,35,35,39,39,40,40,41,41,42,42],"right_children":[2,4,6,8,10,12,14,16,18,20,-1,22,24,26,-1,28,30,32,34,36,-1,-1,38,40,42,-1,-1,-1,-1,44,46,-1,-1,48,50,52,-1,-1,-1,54,56,58,60,-1,-1,-1,-1,-1,-1,-1,-1,-1,-1,-1,-1,-1,-1,-1,-1,-1,-1],"split_conditions":[1.7379586E-1,1.5161058E0,1.8333929E0,-9.536743E-7,-9.536743E-7,-5.51125E-1,-2.3086062E-1,-1.0053992E0,-7.1907824E-1,-3.3572954E-1,7.252051E0,3.1937456E-1,-9.536743E-7,-9.536743E-7,1.3245684E1,-9.536743E-7,-9.536743E-7,-9.9083364E-1,-9.1804427E-1,-9.536743E-7,6.6014647E0,1.2271324E1,-9.536743E-7,-9.536743E-7,-9.536743E-7,1.477428E1,1.7281893E1,1.0937652E1,9.042983E0,-9.536743E-7,-1.1364124E0,9.835241E0,1.155194E1,-1.1072966E0,-9.536743E-7,-9.536743E-7,3.7394733E0,1.3026153E1,1.5145175E1,1.2350574E0,-9.536743E-7,9.5955825E-1,-9.536743E-7,8.462575E0,5.1513147E0,4.1893005E0,6.445665E0,8.9551735E0,5.669136E0,1.0349836E1,9.441012E0,5.803313E0,3.410035E0,1.004774E1,6.5400047E0,7.6616297E0,4.451692E0,1.2270399E1,1.0486848E1,9.606619E0,1.0928924E1],"split_indices":[1,0,1,35,35,0,0,0,0,1,0,1,35,6,0,29,17,1,1,3,0,0,32,19,28,0,0,0,0,33,1,0,0,1,10,11,0,0,0,0,28,0,38,0,0,0,0,0,0,0,0,0,0,0,0,0,0,0,0,0,0],"split_type":[0,0,0,0,0,0,0,0,0,0,0,0,0,0,0,0,0,0,0,0,0,0,0,0,0,0,0,0,0,0,0,0,0,0,0,0,0,0,0,0,0,0,0,0,0,0,0,0,0,0,0,0,0,0,0,0,0,0,0,0,0],"sum_hessian":[4.666E3,2.725E3,1.941E3,2.565E3,1.6E2,1.456E3,4.85E2,6.17E2,1.948E3,6.6E1,9.4E1,4.42E2,1.014E3,2.43E2,2.42E2,1.27E2,4.9E2,4.07E2,1.541E3,5.1E1,1.5E1,2.58E2,1.84E2,1.3E2,8.84E2,1.58E2,8.5E1,7.9E1,4.8E1,4.56E2,3.4E1,1.1E2,2.97E2,2.93E2,1.248E3,3E1,2.1E1,9.5E1,8.9E1,1.08E2,2.2E1,4.98E2,3.86E2,4.49E2,7E0,1.1E1,2.3E1,2.85E2,8E0,8.75E2,3.73E2,1.9E1,1.1E1,1E2,8E0,1.1E1,1.1E1,3.91E2,1.07E2,9E1,2.96E2],"tree_param":{"num_deleted":"0","num_feature":"41","num_nodes":"61","size_leaf_vector":"0"}},{"base_weights":[9.701814E1,8.6382034E1,1.1189818E2,8.8131805E1,5.7957867E1,1.0554185E2,1.3072385E2,8.43672E1,9.635168E1,4.661882E1,6.5344795E1,1.1775866E2,1.001058E2,1.3853316E2,1.1409924E2,9.365188E1,8.152186E1,1.0800947E2,9.3797424E1,4.291353E1,6.8581154E1,1.10489296E2,1.2729924E2,1.03680664E2,8.8692024E1,1.3003171E2,1.5567677E2,8.689211E1,9.825845E1,7.142359E1,8.538919E1,8.2479866E1,1.1117798E2,9.474594E1,7.665571E1,3.812399E1,5.5927433E1,1.1737106E2,1.3647485E2,1.0606859E2,8.523412E1,8.046631E1,9.515091E1,1.3240108E2,9.924417E1,1.1753477E2,9.550885E1,7.28655E1,5.0539886E1,7.888328E1,8.7395325E1,9.514527E1,5.688649E1,1.02077E2,1.1278874E2,5.0934555E1,8.701415E1,6.901165E1,8.580803E1],"categories":[],"categories_nodes":[],"categories_segments":[],"categories_sizes":[],"default_left":[1,1,1,1,1,1,1,1,1,1,0,1,1,1,0,1,1,1,1,1,0,0,1,1,1,1,0,0,1,1,1,0,0,1,0,0,0,0,0,1,1,1,0,0,0,0,0,0,0,0,0,0,0,0,0,0,0,0,0],"id":2,"left_children":[1,3,5,7,9,11,13,15,17,19,-1,21,23,25,-1,27,29,31,33,35,-1,-1,37,39,41,43,-1,-1,45,47,49,-1,-1,51,-1,-1,-1,-1,-1,53,55,57,-1,-1,-1,-1,-1,-1,-1,-1,-1,-1,-1,-1,-1,-1,-1,-1,-1],"loss_changes":[7.2896E5,1.30472E5,2.18586E5,7.1274E4,1.04391875E4,8.4973E4,4.7289E4,3.9073E4,1.36605E4,2.5091875E3,0E0,1.6659E4,3.2219E4,2.72695E4,0E0,4.167E3,4.7052E4,1.912125E3,3.5175E3,1.6076562E3,0E0,0E0,8.3475E2,2.4745E4,5.57275E3,3.2E3,0E0,0E0,1.23E3,7.8505E3,5.8835E3,0E0,0E0,4.021E3,0E0,0E0,0E0,0E0,0E0,6.593E3,1.2460625E3,1.176E3,0E0,0E0,0E0,0E0,0E0,0E0,0E0,0E0,0E0,0E0,0E0,0E0,0E0,0E0,0E0,0E0,0E0],"parents":[2147483647,0,0,1,1,2,2,3,3,4,4,5,5,6,6,7,7,8,8,9,9,11,11,12,12,13,13,15,15,16,16,17,17,18,18,19,19,22,22,23,23,24,24,25,25,28,28,29,29,30,30,33,33,39,39,40,40,41,41],"right_children":[2,4,6,8,10,12,14,16,18,20,-1,22,24,26,-1,28,30,32,34,36,-1,-1,38,40,42,44,-1,-1,46,48,50,-1,-1,52,-1,-1,-1,-1,-1,54,56,58,-1,-1,-1,-1,-1,-1,-1,-1,-1,-1,-1,-1,-1,-1,-1,-1,-1],"split_conditions":[1.7379586E-1,1.5161058E0,1.8333929E0,-9.536743E-7,-9.536743E-7,-5.51125E-1,2.6688626E-1,-7.365762E-1,-8.476217E-1,-9.536743E-7,6.5344796E0,3.1937456E-1,-9.536743E-7,-9.536743E-7,1.14099245E1,-9.1804427E-1,-9.536743E-7,-8.452549E-1,-8.8245764E-2,-3.3572954E-1,6.8581157E0,1.104893E1,-9.536743E-7,1.4107945E0,-9.536743E-7,-9.536743E-7,1.55676775E1,8.689212E0,-2.0070796E0,-9.536743E-7,-9.1804427E-1,8.247987E0,1.1117798E1,-9.536743E-7,7.6655707E0,3.812399E0,5.5927434E0,1.1737106E1,1.3647486E1,-9.536743E-7,1.4676838E0,-9.536743E-7,9.515091E0,1.3240108E1,9.9244175E0,1.1753477E1,9.550885E0,7.28655E0,5.053989E0,7.888328E0,8.739532E0,9.514527E0,5.688649E0,1.0207701E1,1.1278874E1,5.093456E0,8.701415E0,6.901165E0,8.580803E0],"split_indices":[1,0,1,38,35,0,0,0,0,32,0,1,3,6,0,1,35,1,1,1,0,0,32,0,38,9,0,0,0,17,1,0,0,17,0,0,0,0,0,37,0,35,0,0,0,0,0,0,0,0,0,0,0,0,0,0,0,0,0],"split_type":[0,0,0,0,0,0,0,0,0,0,0,0,0,0,0,0,0,0,0,0,0,0,0,0,0,0,0,0,0,0,0,0,0,0,0,0,0,0,0,0,0,0,0,0,0,0,0,0,0,0,0,0,0,0,0,0,0,0,0],"sum_hessian":[4.666E3,2.725E3,1.941E3,2.565E3,1.6E2,1.456E3,4.85E2,1.767E3,7.98E2,6.6E1,9.4E1,4.42E2,1.014E3,3.25E2,1.6E2,4.07E2,1.36E3,1.36E2,6.62E2,5.9E1,7E0,2.58E2,1.84E2,7.66E2,2.48E2,2.23E2,1.02E2,1.73E2,2.34E2,3.82E2,9.78E2,1.8E1,1.18E2,6.23E2,3.9E1,4.6E1,1.3E1,9.5E1,8.9E1,6.74E2,9.2E1,1.15E2,1.33E2,2.04E2,1.9E1,2.4E1,2.1E2,3.55E2,2.7E1,2.4E2,7.38E2,6.15E2,8E0,4.33E2,2.41E2,6E0,8.6E1,4.1E1,7.4E1],"tree_param":{"num_deleted":"0","num_feature":"41","num_nodes":"59","size_leaf_vector":"0"}},{"base_weights":[8.737437E1,7.7789314E1,1.0078397E2,7.957745E1,5.5292934E1,9.505404E1,1.1775464E2,7.05629E1,8.240886E1,4.4021217E1,6.1370518E1,1.0152235E2,8.6591545E1,1.2479865E2,1.0276019E2,7.955031E1,6.514131E1,7.9175385E1,8.7953674E1,5.1381847E1,3.59093E1,6.615424E1,5.429151E1,9.669534E1,1.0939748E2,7.596058E1,9.070035E1,1.1713195E2,1.4026024E2,7.60233E1,9.097234E1,6.646876E1,4.650799E1,8.2502975E1,7.457417E1,9.6559784E1,8.445956E1,5.7393387E1,3.7406227E1,5.803907E1,4.2739212E1,8.9939705E1,1.01096176E2,1.1556146E2,1.0093343E2,6.165589E1,8.112866E1,9.3149765E1,7.877318E1,1.1007762E2,1.2868639E2,8.0599144E1,6.9123505E1,6.755263E1,5.0030422E1,3.2966915E1,5.1899776E1,7.6195816E1,8.5189995E1,7.762241E1,7.0205505E1,8.513085E1,6.164249E1,6.904004E1,1.0402743E2,7.11492E1,3.5255787E1,9.869102E1,8.6277016E1],"categories":[],"categories_nodes":[],"categories_segments":[],"categories_sizes":[],"default_left":[1,1,1,1,1,1,1,1,1,1,1,1,1,1,0,1,1,1,1,1,0,0,1,1,1,1,1,1,0,1,0,1,1,1,1,0,1,0,0,0,0,0,0,0,1,1,0,1,0,0,0,0,0,0,0,0,0,0,0,0,0,0,0,0,0,0,0,0,0],"id":3,"left_children":[1,3,5,7,9,11,13,15,17,19,21,23,25,27,-1,29,31,33,35,37,-1,-1,39,41,43,45,47,49,-1,51,-1,53,55,57,59,-1,61,-1,-1,-1,-1,-1,-1,-1,63,65,-1,67,-1,-1,-1,-1,-1,-1,-1,-1,-1,-1,-1,-1,-1,-1,-1,-1,-1,-1,-1,-1,-1],"loss_changes":[5.92016E5,1.05258E5,1.7765E5,5.8582E4,1.12734375E4,7.0962E4,3.85075E4,2.454075E4,2.7352E4,2.6330625E3,8.1071875E2,2.0593E4,2.09785E4,2.2215E4,0E0,2.14825E3,6.456375E3,1.2512E4,1.27735E4,9.616797E2,0E0,0E0,3.0453125E1,6.278E3,4.19625E3,8.600625E3,5.955E3,4.0925E3,0E0,4.85625E1,0E0,2.99875E3,4.0632812E2,5.338E3,1.50175E3,0E0,2.45675E3,0E0,0E0,0E0,0E0,0E0,0E0,0E0,6.238125E3,1.0774672E4,0E0,5.6525E3,0E0,0E0,0E0,0E0,0E0,0E0,0E0,0E0,0E0,0E0,0E0,0E0,0E0,0E0,0E0,0E0,0E0,0E0,0E0,0E0,0E0],"parents":[2147483647,0,0,1,1,2,2,3,3,4,4,5,5,6,6,7,7,8,8,9,9,10,10,11,11,12,12,13,13,15,15,16,16,17,17,18,18,19,19,22,22,23,23,24,24,25,25,26,26,27,27,29,29,31,31,32,32,33,33,34,34,36,36,44,44,45,45,47,47],"right_children":[2,4,6,8,10,12,14,16,18,20,22,24,26,28,-1,30,32,34,36,38,-1,-1,40,42,44,46,48,50,-1,52,-1,54,56,58,60,-1,62,-1,-1,-1,-1,-1,-1,-1,64,66,-1,68,-1,-1,-1,-1,-1,-1,-1,-1,-1,-1,-1,-1,-1,-1,-1,-1,-1,-1,-1,-1,-1],"split_conditions":[1.7379586E-1,1.3795474E0,1.8333929E0,-9.536743E-7,-9.536743E-7,1.6805711E-1,2.6688626E-1,-4.7686696E-1,-9.536743E-7,2.1179175E0,1.9221243E0,3.484903E-1,-9.536743E-7,-9.536743E-7,1.0276019E1,-9.536743E-7,-9.536743E-7,1.5067916E-1,-4.6742082E-1,-9.536743E-7,3.5909302E0,6.6154246E0,-9.536743E-7,-9.536743E-7,-6.4574355E-1,-9.536743E-7,1.4181539E0,2.8524437E0,1.4026024E1,-9.536743E-7,9.097235E0,-9.536743E-7,-1.063623E0,-9.9083364E-1,-9.536743E-7,9.655978E0,-1.5456426E-2,5.739339E0,3.7406228E0,5.803907E0,4.2739215E0,8.993971E0,1.0109618E1,1.1556147E1,-9.536743E-7,-9.536743E-7,8.112866E0,-9.536743E-7,7.877318E0,1.1007762E1,1.2868639E1,8.059915E0,6.9123507E0,6.755263E0,5.003042E0,3.2966917E0,5.1899776E0,7.6195817E0,8.519E0,7.7622414E0,7.0205507E0,8.513085E0,6.164249E0,6.904004E0,1.0402743E1,7.11492E0,3.5255787E0,9.869102E0,8.627702E0],"split_indices":[1,0,1,35,35,0,0,0,38,0,0,1,38,6,0,32,17,0,0,3,0,0,3,38,0,35,0,1,0,2,0,25,1,1,28,0,1,0,0,0,0,0,0,0,35,19,0,28,0,0,0,0,0,0,0,0,0,0,0,0,0,0,0,0,0,0,0,0,0],"split_type":[0,0,0,0,0,0,0,0,0,0,0,0,0,0,0,0,0,0,0,0,0,0,0,0,0,0,0,0,0,0,0,0,0,0,0,0,0,0,0,0,0,0,0,0,0,0,0,0,0,0,0,0,0,0,0,0,0,0,0,0,0,0,0,0,0,0,0,0,0],"sum_hessian":[4.666E3,2.725E3,1.941E3,2.522E3,2.03E2,1.456E3,4.85E2,6.09E2,1.913E3,7.4E1,1.29E2,8.19E2,6.37E2,3.25E2,1.6E2,2.24E2,3.85E2,1.218E3,6.95E2,3.6E1,3.8E1,7.2E1,5.7E1,5.16E2,3.03E2,1.83E2,4.54E2,2.23E2,1.02E2,1.77E2,4.7E1,3.57E2,2.8E1,6.97E2,5.21E2,1.93E2,5.02E2,2.3E1,1.3E1,4E1,1.7E1,2.12E2,3.04E2,1.68E2,1.35E2,5.2E1,1.31E2,3.71E2,8.3E1,1.45E2,7.8E1,1E2,7.7E1,3.32E2,2.5E1,1E1,1.8E1,2.17E2,4.8E2,2.97E2,2.24E2,4.85E2,1.7E1,1.4E1,1.21E2,3.7E1,1.5E1,1.98E2,1.73E2],"tree_param":{"num_deleted":"0","num_feature":"41","num_nodes":"69","size_leaf_vector":"0"}},{"base_weights":[7.869491E1,7.005783E1,9.077833E1,7.226047E1,5.5286556E1,8.5612526E1,1.0607831E2,6.405316E1,7.514593E1,6.011193E1,4.2923504E1,9.7098145E1,8.15708E1,1.13711044E2,9.440185E1,6.474535E1,2.9318012E1,8.7007065E1,7.321753E1,5.0076214E1,6.3009365E1,3.393261E1,4.9205837E1,8.9446465E1,1.0303609E2,8.47378E1,7.17571E1,1.0705097E2,1.2618475E2,9.758901E1,7.841405E1,7.2064156E1,6.1960514E1,9.708396E1,8.3392914E1,6.9803375E1,7.886248E1,3.1339828E1,5.3502888E1,6.678493E1,5.7702614E1,3.7891598E1,2.6891342E1,5.2535603E1,3.8702732E1,8.755909E1,7.385744E1,6.557505E1,7.6832115E1,9.981447E1,1.1909834E2,6.2685074E1,3.2837967E1,7.043661E1,4.5570827E1,8.0870155E1,7.081035E1,4.4521523E1,6.1062645E1,2.8635506E1,5.07634E1,8.834035E1,6.652077E1,7.310244E1,5.8992504E1],"categories":[],"categories_nodes":[],"categories_segments":[],"categories_sizes":[],"default_left":[1,1,1,1,1,1,1,1,1,1,1,1,1,1,1,1,0,1,1,1,1,1,1,0,0,1,1,1,0,0,0,0,1,0,0,1,1,0,1,0,0,1,0,0,0,1,0,1,0,0,0,0,0,0,0,0,0,0,0,0,0,0,0,0,0],"id":4,"left_children":[1,3,5,7,9,11,13,15,17,19,21,23,25,27,29,31,-1,33,35,37,39,41,43,-1,-1,45,47,49,-1,-1,-1,-1,51,-1,-1,53,55,-1,57,-1,-1,59,-1,-1,-1,61,-1,63,-1,-1,-1,-1,-1,-1,-1,-1,-1,-1,-1,-1,-1,-1,-1,-1,-1],"loss_changes":[4.80714E5,8.4698E4,1.44408E5,5.1289E4,1.8776875E4,5.9716E4,3.2579E4,1.3081E4,3.3589E4,4.2595625E3,4.204625E3,7.7765E3,2.761E4,1.05005E4,2.436875E3,7.96775E3,0E0,6.08125E2,2.3577E4,2.3038438E3,3.33125E1,2.6335156E2,3.0125E1,0E0,0E0,1.85205E4,3.464125E3,5.11275E3,0E0,0E0,0E0,0E0,7.416E3,0E0,0E0,1.1353E4,3.34275E3,0E0,7.441406E2,0E0,0E0,1.7632148E3,0E0,0E0,0E0,4.6595E3,0E0,2.0793125E3,0E0,0E0,0E0,0E0,0E0,0E0,0E0,0E0,0E0,0E0,0E0,0E0,0E0,0E0,0E0,0E0,0E0],"parents":[2147483647,0,0,1,1,2,2,3,3,4,4,5,5,6,6,7,7,8,8,9,9,10,10,11,11,12,12,13,13,14,14,15,15,17,17,18,18,19,19,20,20,21,21,22,22,25,25,26,26,27,27,32,32,35,35,36,36,38,38,41,41,45,45,47,47],"right_children":[2,4,6,8,10,12,14,16,18,20,22,24,26,28,30,32,-1,34,36,38,40,42,44,-1,-1,46,48,50,-1,-1,-1,-1,52,-1,-1,54,56,-1,58,-1,-1,60,-1,-1,-1,62,-1,64,-1,-1,-1,-1,-1,-1,-1,-1,-1,-1,-1,-1,-1,-1,-1,-1,-1],"split_conditions":[1.7379586E-1,1.012671E0,1.8333929E0,-8.452549E-1,1.8634253E0,-7.0768374E-1,7.932974E-2,-9.536743E-7,-1.0613098E0,-9.536743E-7,-9.536743E-7,-9.536743E-7,-9.536743E-7,-9.536743E-7,1.2839501E0,-9.557215E-1,2.9318013E0,-1.773659E0,-9.536743E-7,1.0905671E0,-9.536743E-7,-9.536743E-7,-9.536743E-7,8.944647E0,1.0303609E1,9.677116E-1,-9.536743E-7,2.8524437E0,1.2618476E1,9.758902E0,7.841405E0,7.2064157E0,-9.536743E-7,9.708396E0,8.339292E0,-9.536743E-7,-9.536743E-7,3.133983E0,-6.996763E-1,6.678493E0,5.7702613E0,-6.996763E-1,2.6891344E0,5.2535605E0,3.8702734E0,-9.536743E-7,7.3857436E0,1.2001377E-1,7.683212E0,9.981447E0,1.1909835E1,6.2685075E0,3.2837968E0,7.0436606E0,4.5570827E0,8.087016E0,7.081035E0,4.4521523E0,6.1062646E0,2.8635507E0,5.07634E0,8.834035E0,6.6520767E0,7.310244E0,5.8992505E0],"split_indices":[1,0,1,1,0,0,0,10,0,35,35,34,3,6,0,0,0,0,38,0,28,3,3,0,0,0,38,1,0,0,0,0,17,0,0,17,10,0,1,0,0,1,0,0,0,17,0,0,0,0,0,0,0,0,0,0,0,0,0,0,0,0,0,0,0],"split_type":[0,0,0,0,0,0,0,0,0,0,0,0,0,0,0,0,0,0,0,0,0,0,0,0,0,0,0,0,0,0,0,0,0,0,0,0,0,0,0,0,0,0,0,0,0,0,0,0,0,0,0,0,0,0,0,0,0,0,0,0,0,0,0,0,0],"sum_hessian":[4.666E3,2.725E3,1.941E3,2.368E3,3.57E2,1.456E3,4.85E2,6.22E2,1.746E3,2.54E2,1.03E2,3.73E2,1.083E3,2.88E2,1.97E2,6.09E2,1.3E1,2.38E2,1.508E3,6.1E1,1.93E2,4.5E1,5.8E1,1.7E2,2.03E2,8.13E2,2.7E2,1.94E2,9.4E1,1.6E2,3.7E1,1.61E2,4.48E2,5.6E1,1.82E2,9.48E2,5.6E2,1.1E1,5E1,1.06E2,8.7E1,2.6E1,1.9E1,4.1E1,1.7E1,6.4E2,1.73E2,1.28E2,1.42E2,1.27E2,6.7E1,4.36E2,1.2E1,9.22E2,2.6E1,4.41E2,1.19E2,2.6E1,2.4E1,1.7E1,9E0,6.14E2,2.6E1,5.5E1,7.3E1],"tree_param":{"num_deleted":"0","num_feature":"41","num_nodes":"65","size_leaf_vector":"0"}},{"base_weights":[7.087374E1,6.58778E1,8.8041954E1,6.1420383E1,7.2931816E1,9.422213E1,7.222473E1,6.492757E1,5.3611164E1,7.745466E1,6.717919E1,8.937663E1,1.1050517E2,7.340623E1,3.4617733E1,6.1392895E1,7.0289154E1,4.394328E1,5.7538464E1,6.944735E1,8.0727165E1,6.801056E1,4.141421E1,8.3951904E1,9.674894E1,7.79409E1,6.377292E1,6.573115E1,5.8067024E1,7.421867E1,6.56114E1,4.6439175E1,3.0024548E1,5.900031E1,4.1346504E1,6.0354027E1,7.226854E1,8.9309494E1,7.795365E1,6.5111824E1,7.240324E1,4.9030087E1,3.0981806E1,8.16949E1,1.0340472E2,9.7803825E1,5.868935E1,7.5707184E1,9.77801E1,3.4015064E1,6.534392E1,6.824909E1,6.0054054E1,3.704062E1,5.9286823E1,7.52951E1,5.2035397E1,4.7610176E1,2.497173E1,2.3767647E1,3.5578083E1,6.236201E1,5.4235565E1,2.4714867E1,4.3322163E1,7.88805E1,4.967858E1,6.237205E1,7.107045E1,7.522985E1,6.4403725E1,9.063931E1,7.812746E1,1.0317449E2,8.795494E1,3.6704834E1,6.691519E1],"categories":[],"categories_nodes":[],"categories_segments":[],"categories_sizes":[],"default_left":[1,1,1,1,1,1,1,1,1,1,1,1,0,1,0,1,1,1,1,1,1,1,1,1,1,1,1,1,1,1,0,1,1,1,1,0,0,0,1,1,1,0,0,1,0,1,0,0,0,0,1,0,0,0,0,0,0,0,0,0,0,0,0,0,0,0,0,0,0,0,0,0,0,0,0,0,0],"id":5,"left_children":[1,3,5,7,9,11,13,15,17,19,21,23,-1,25,-1,27,29,31,33,35,37,39,41,43,45,47,49,51,53,55,-1,57,59,61,63,-1,-1,-1,65,67,69,-1,-1,71,-1,73,-1,-1,-1,-1,75,-1,-1,-1,-1,-1,-1,-1,-1,-1,-1,-1,-1,-1,-1,-1,-1,-1,-1,-1,-1,-1,-1,-1,-1,-1,-1],"loss_changes":[3.94496E5,1.09312E5,9.57375E4,5.743E4,3.1118E4,4.9377E4,1.0744125E4,2.46805E4,2.3859875E4,1.4702E4,1.05065E4,1.5234E4,0E0,7.654125E3,0E0,9.6015E3,6.1775E3,5.7273125E3,9.182625E3,1.590125E3,5.987E3,2.9385E3,2.2890234E2,6.65575E3,3.93575E3,1.105875E3,2.3587812E3,1.562E3,1.1525625E4,3.69925E3,0E0,3.1349062E3,3.358203E2,3.793625E3,3.750703E2,0E0,0E0,0E0,7.062E3,1.64025E3,3.555E2,0E0,0E0,2.906E3,0E0,3.25E3,0E0,0E0,0E0,0E0,1.683875E3,0E0,0E0,0E0,0E0,0E0,0E0,0E0,0E0,0E0,0E0,0E0,0E0,0E0,0E0,0E0,0E0,0E0,0E0,0E0,0E0,0E0,0E0,0E0,0E0,0E0,0E0],"parents":[2147483647,0,0,1,1,2,2,3,3,4,4,5,5,6,6,7,7,8,8,9,9,10,10,11,11,13,13,15,15,16,16,17,17,18,18,19,19,20,20,21,21,22,22,23,23,24,24,25,25,26,26,27,27,28,28,29,29,31,31,32,32,33,33,34,34,38,38,39,39,40,40,43,43,45,45,50,50],"right_children":[2,4,6,8,10,12,14,16,18,20,22,24,-1,26,-1,28,30,32,34,36,38,40,42,44,46,48,50,52,54,56,-1,58,60,62,64,-1,-1,-1,66,68,70,-1,-1,72,-1,74,-1,-1,-1,-1,76,-1,-1,-1,-1,-1,-1,-1,-1,-1,-1,-1,-1,-1,-1,-1,-1,-1,-1,-1,-1,-1,-1,-1,-1,-1,-1],"split_conditions":[3.484903E-1,-9.536743E-7,5.52367E-1,4.57296E-1,2.3688571E-1,-9.536743E-7,-9.536743E-7,-5.5409753E-1,-9.536743E-7,-5.5409753E-1,2.2299876E0,-9.536743E-7,1.1050517E1,1.4107945E0,3.4617734E0,-5.168954E-1,-9.536743E-7,2.1179175E0,1.8149478E0,-8.452549E-1,-9.6272993E-1,1.7379586E-1,-9.536743E-7,2.9397907E0,-9.536743E-7,2.9397907E0,1.459512E0,-9.536743E-7,-9.536743E-7,-9.536743E-7,6.5611396E0,-9.536743E-7,2.5402427E0,-9.536743E-7,1.9650798E0,6.035403E0,7.226854E0,8.930949E0,-9.536743E-7,-9.536743E-7,-9.536743E-7,4.903009E0,3.0981805E0,-1.151339E0,1.0340472E1,-1.7832965E-1,5.868935E0,7.5707183E0,9.77801E0,3.4015064E0,-9.536743E-7,6.824909E0,6.0054054E0,3.704062E0,5.9286823E0,7.52951E0,5.20354E0,4.761018E0,2.497173E0,2.3767648E0,3.5578084E0,6.2362013E0,5.423557E0,2.4714868E0,4.3322163E0,7.88805E0,4.9678583E0,6.237205E0,7.107045E0,7.522985E0,6.4403725E0,9.063931E0,7.8127456E0,1.031745E1,8.795494E0,3.6704834E0,6.6915193E0],"split_indices":[1,38,0,0,0,6,17,1,35,1,0,37,0,0,0,0,3,0,0,1,0,1,3,1,7,1,0,29,40,33,0,17,0,28,0,0,0,0,17,30,3,0,0,0,0,0,0,0,0,0,35,0,0,0,0,0,0,0,0,0,0,0,0,0,0,0,0,0,0,0,0,0,0,0,0,0,0],"split_type":[0,0,0,0,0,0,0,0,0,0,0,0,0,0,0,0,0,0,0,0,0,0,0,0,0,0,0,0,0,0,0,0,0,0,0,0,0,0,0,0,0,0,0,0,0,0,0,0,0,0,0,0,0,0,0,0,0,0,0,0,0,0,0,0,0,0,0,0,0,0,0,0,0,0,0,0,0],"sum_hessian":[4.666E3,3.618E3,1.048E3,2.223E3,1.395E3,7.5E2,2.98E2,1.529E3,6.94E2,7.74E2,6.21E2,5.83E2,1.67E2,2.88E2,1E1,9.29E2,6E2,2.04E2,4.9E2,2.31E2,5.43E2,6E2,2.1E1,3.43E2,2.4E2,1.91E2,9.7E1,3.95E2,5.34E2,3.18E2,2.82E2,1.71E2,3.3E1,4.47E2,4.3E1,6E1,1.71E2,1.25E2,4.18E2,3.71E2,2.29E2,1E1,1.1E1,3.12E2,3.1E1,2.32E2,8E0,1.76E2,1.5E1,6E0,9.1E1,2.66E2,1.29E2,3.1E1,5.03E2,3.01E2,1.7E1,1.61E2,1E1,1.8E1,1.5E1,2.55E2,1.92E2,6E0,3.7E1,4.03E2,1.5E1,2.62E2,1.09E2,1.63E2,6.6E1,8.2E1,2.3E2,1.44E2,8.8E1,6E0,8.5E1],"tree_param":{"num_deleted":"0","num_feature":"41","num_nodes":"77","size_leaf_vector":"0"}},{"base_weights":[6.3838135E1,5.9329742E1,7.933102E1,5.531135E1,6.568903E1,8.488414E1,6.511789E1,5.7555073E1,4.5362835E1,6.942521E1,6.005442E1,8.052835E1,9.952043E1,5.8793175E1,7.256984E1,6.556978E1,5.566475E1,3.6860535E1,4.9300148E1,6.230773E1,7.242248E1,6.08521E1,3.763648E1,7.795408E1,9.452872E1,6.1723217E1,3.8763214E1,5.8862484E1,6.914775E1,5.2458237E1,6.0944653E1,3.3534866E1,5.3317253E1,5.1307663E1,3.7366486E1,5.411901E1,6.472537E1,7.5569626E1,6.638646E1,5.8133156E1,6.501788E1,2.4445234E1,4.2162712E1,7.6230515E1,9.8003555E1,3.396878E1,6.376329E1,2.3913168E1,5.1620495E1,8.106944E1,6.6940956E1,4.61902E1,5.535826E1,6.4441574E1,5.6940636E1,3.621035E1,1.9834589E1,5.4387794E1,4.6697807E1,2.259645E1,3.9103954E1,8.2897766E1,7.312745E1,5.9118176E1,4.511621E1,7.235719E1,8.23275E1,6.482147E1,4.1981518E1,1.568687E1,2.87233E1],"categories":[],"categories_nodes":[],"categories_segments":[],"categories_sizes":[],"default_left":[1,1,1,1,1,1,1,1,1,1,1,1,0,1,0,1,1,1,1,1,1,1,1,1,0,1,1,0,1,1,1,1,0,1,1,0,0,1,0,1,0,0,0,1,0,0,1,1,0,0,0,0,0,0,0,0,0,0,0,0,0,0,0,0,0,0,0,0,0,0,0],"id":6,"left_children":[1,3,5,7,9,11,13,15,17,19,21,23,-1,25,-1,27,29,31,33,35,37,39,41,43,-1,45,47,-1,49,51,53,55,-1,57,59,-1,-1,61,-1,63,-1,-1,-1,65,-1,-1,67,69,-1,-1,-1,-1,-1,-1,-1,-1,-1,-1,-1,-1,-1,-1,-1,-1,-1,-1,-1,-1,-1,-1,-1],"loss_changes":[3.21274E5,8.8847E4,7.7267E4,4.7033E4,2.5219E4,3.9864E4,9.825625E3,2.37875E4,1.2041875E4,1.325775E4,7.7955E3,1.367875E4,0E0,7.4084375E3,0E0,4.08925E3,2.1724E4,5.6005156E3,4.7908125E3,1.5256875E3,6.001E3,2.370625E3,2.828711E2,9.773E3,0E0,5.9875E3,3.3479375E3,0E0,2.558125E2,1.422075E4,4.0315E3,3.4970938E3,0E0,8.253125E2,2.4553906E2,0E0,0E0,6.3125E2,0E0,1.666625E3,0E0,0E0,0E0,5.00075E3,0E0,0E0,3.4425E2,6.382617E1,0E0,0E0,0E0,0E0,0E0,0E0,0E0,0E0,0E0,0E0,0E0,0E0,0E0,0E0,0E0,0E0,0E0,0E0,0E0,0E0,0E0,0E0,0E0],"parents":[2147483647,0,0,1,1,2,2,3,3,4,4,5,5,6,6,7,7,8,8,9,9,10,10,11,11,13,13,15,15,16,16,17,17,18,18,19,19,20,20,21,21,22,22,23,23,25,25,26,26,28,28,29,29,30,30,31,31,33,33,34,34,37,37,39,39,43,43,46,46,47,47],"right_children":[2,4,6,8,10,12,14,16,18,20,22,24,-1,26,-1,28,30,32,34,36,38,40,42,44,-1,46,48,-1,50,52,54,56,-1,58,60,-1,-1,62,-1,64,-1,-1,-1,66,-1,-1,68,70,-1,-1,-1,-1,-1,-1,-1,-1,-1,-1,-1,-1,-1,-1,-1,-1,-1,-1,-1,-1,-1,-1,-1],"split_conditions":[3.484903E-1,-9.536743E-7,5.52367E-1,8.0884445E-1,3.506274E-1,-9.536743E-7,1.4548883E0,-1.0743387E0,-9.536743E-7,-5.5409753E-1,2.2299876E0,2.8524437E0,9.952044E0,1.1200573E0,7.256984E0,-9.1804427E-1,-4.521925E-1,-9.536743E-7,1.8149478E0,-8.452549E-1,-9.536743E-7,1.7379586E-1,-3.3572954E-1,-9.536743E-7,9.452872E0,-9.536743E-7,-9.536743E-7,5.8862486E0,-2.0070796E0,-9.536743E-7,-9.536743E-7,-9.536743E-7,5.3317256E0,-9.536743E-7,1.9650798E0,5.411901E0,6.4725375E0,-1.0646524E0,6.638646E0,-1.5456426E-2,6.5017886E0,2.4445236E0,4.2162714E0,-9.536743E-7,9.800356E0,3.396878E0,-9.536743E-7,1.2840332E0,5.16205E0,8.106944E0,6.6940956E0,4.61902E0,5.535826E0,6.4441576E0,5.6940637E0,3.621035E0,1.9834589E0,5.4387794E0,4.6697807E0,2.2596452E0,3.9103954E0,8.289777E0,7.312745E0,5.9118176E0,4.511621E0,7.235719E0,8.23275E0,6.482147E0,4.198152E0,1.568687E0,2.8723302E0],"split_indices":[1,38,0,0,0,6,1,0,35,1,0,1,0,1,0,1,1,32,0,1,28,1,1,12,0,35,32,0,0,35,3,25,0,28,0,0,0,0,0,1,0,0,0,37,0,0,25,0,0,0,0,0,0,0,0,0,0,0,0,0,0,0,0,0,0,0,0,0,0,0,0],"split_type":[0,0,0,0,0,0,0,0,0,0,0,0,0,0,0,0,0,0,0,0,0,0,0,0,0,0,0,0,0,0,0,0,0,0,0,0,0,0,0,0,0,0,0,0,0,0,0,0,0,0,0,0,0,0,0,0,0,0,0,0,0,0,0,0,0,0,0,0,0,0,0],"sum_hessian":[4.666E3,3.618E3,1.048E3,2.223E3,1.395E3,7.5E2,2.98E2,1.81E3,4.13E2,8.32E2,5.63E2,5.83E2,1.67E2,1.66E2,1.32E2,3.39E2,1.471E3,1.34E2,2.79E2,2.53E2,5.79E2,5.42E2,2.1E1,4.98E2,8.5E1,1.43E2,2.3E1,1.24E2,2.15E2,9.22E2,5.49E2,1.14E2,2E1,2.36E2,4.3E1,6.3E1,1.9E2,3.73E2,2.06E2,3.37E2,2.05E2,7E0,1.4E1,4.63E2,3.5E1,1.1E1,1.32E2,1.2E1,1.1E1,2.8E1,1.87E2,2.97E2,6.25E2,2.85E2,2.64E2,9.4E1,2E1,1.35E2,1.01E2,6E0,3.7E1,8.5E1,2.88E2,3.1E2,2.7E1,2.91E2,1.72E2,1.24E2,8E0,6E0,6E0],"tree_param":{"num_deleted":"0","num_feature":"41","num_nodes":"71","size_leaf_vector":"0"}},{"base_weights":[5.749793E1,5.1113277E1,6.6430504E1,5.312843E1,4.178603E1,6.2548733E1,7.7931145E1,4.6440422E1,5.558339E1,4.523421E1,3.268787E1,6.657389E1,5.5424965E1,9.055763E1,7.28672E1,4.702297E1,1.6205269E1,6.807857E1,5.4411095E1,4.598743E1,2.3764519E1,2.5017004E1,3.7936535E1,7.575018E1,6.367554E1,5.1658268E1,6.1879337E1,9.262655E1,6.401653E1,7.691046E1,6.339572E1,5.2837944E1,4.4744057E1,6.1802757E1,7.478157E1,5.641247E1,4.9475025E1,4.6493202E1,2.6679588E1,3.3736443E1,8.973103E0,2.2287546E1,4.2109043E1,7.698476E1,4.563146E1,5.3635498E1,6.5667465E1,5.659623E1,4.736142E1,7.287489E1,9.059512E1,5.6787052E1,6.931992E1,3.234032E1,5.3692753E1,4.5320564E1,1.8454662E1,5.6970993E1,7.522058E1,5.947331E1,5.0771885E1,5.003243E1,3.0346466E1,4.931223E1,4.1798595E1,1.8855934E1,3.2440895E1,7.14941E1,8.432627E1,5.5957268E1,3.798176E1,6.758131E1,5.6110912E1,2.8025877E1,5.041101E1,7.7872894E1,5.8297634E1,5.9172554E1,3.448108E1],"categories":[],"categories_nodes":[],"categories_segments":[],"categories_sizes":[],"default_left":[1,1,1,1,1,1,1,1,1,1,1,1,1,1,1,1,0,1,1,1,1,1,0,1,1,1,0,0,0,1,1,1,1,1,0,1,1,1,0,0,0,1,0,1,0,1,1,0,1,1,0,1,0,0,0,0,0,0,0,0,0,0,0,0,0,0,0,0,0,0,0,0,0,0,0,0,0,0,0],"id":7,"left_children":[1,3,5,7,9,11,13,15,17,19,21,23,25,27,29,31,-1,33,35,37,39,41,-1,43,45,47,-1,-1,-1,49,51,53,55,57,-1,59,61,63,-1,-1,-1,65,-1,67,-1,69,71,-1,73,75,-1,77,-1,-1,-1,-1,-1,-1,-1,-1,-1,-1,-1,-1,-1,-1,-1,-1,-1,-1,-1,-1,-1,-1,-1,-1,-1,-1,-1],"loss_changes":[2.6277E5,4.9018E4,8.1822E4,3.41635E4,1.3862375E4,3.80885E4,2.4476E4,9.929375E3,2.02015E4,4.5995E3,4.607078E3,1.98045E4,9.73725E3,1.483375E3,8.604375E3,5.520625E3,0E0,1.099375E3,1.1998E4,2.07E3,1.7622637E3,1.8139609E3,0E0,4.555875E3,1.0677E4,4.576E3,0E0,0E0,0E0,6.762375E3,4.093125E2,1.1020312E3,5.741375E3,6.4184375E2,0E0,1.524675E4,3.173E3,2.292875E3,0E0,0E0,0E0,1.2349414E3,0E0,2.31525E3,0E0,2.3449688E3,6.9625E3,0E0,9.731656E3,9.44875E3,0E0,1.0459062E3,0E0,0E0,0E0,0E0,0E0,0E0,0E0,0E0,0E0,0E0,0E0,0E0,0E0,0E0,0E0,0E0,0E0,0E0,0E0,0E0,0E0,0E0,0E0,0E0,0E0,0E0,0E0],"parents":[2147483647,0,0,1,1,2,2,3,3,4,4,5,5,6,6,7,7,8,8,9,9,10,10,11,11,12,12,13,13,14,14,15,15,17,17,18,18,19,19,20,20,21,21,23,23,24,24,25,25,29,29,30,30,31,31,32,32,33,33,35,35,36,36,37,37,41,41,43,43,45,45,46,46,48,48,49,49,51,51],"right_children":[2,4,6,8,10,12,14,16,18,20,22,24,26,28,30,32,-1,34,36,38,40,42,-1,44,46,48,-1,-1,-1,50,52,54,56,58,-1,60,62,64,-1,-1,-1,66,-1,68,-1,70,72,-1,74,76,-1,78,-1,-1,-1,-1,-1,-1,-1,-1,-1,-1,-1,-1,-1,-1,-1,-1,-1,-1,-1,-1,-1,-1,-1,-1,-1,-1,-1],"split_conditions":[1.7379586E-1,8.6448723E-1,1.8333929E0,-8.452549E-1,1.5936418E0,-9.536743E-7,-7.747487E-1,-9.536743E-7,-1.4685102E0,-9.536743E-7,-9.536743E-7,-9.596828E-1,-9.536743E-7,-9.536743E-7,-9.536743E-7,-9.557215E-1,1.6205269E0,-9.536743E-7,-9.536743E-7,-9.536743E-7,-9.536743E-7,-9.536743E-7,3.7936535E0,-9.536743E-7,-9.536743E-7,1.2453832E-1,6.187934E0,9.262655E0,6.4016533E0,2.9397907E0,-9.536743E-7,-9.536743E-7,-9.536743E-7,-9.536743E-7,7.478157E0,-9.536743E-7,-5.2498186E-1,-9.536743E-7,2.667959E0,3.3736444E0,8.9731026E-1,-3.3572954E-1,4.2109046E0,-9.536743E-7,4.563146E0,4.0672177E-1,9.871026E-1,5.659623E0,-9.536743E-7,2.0226452E0,9.059512E0,-9.536743E-7,6.9319925E0,3.2340322E0,5.3692756E0,4.5320563E0,1.8454663E0,5.697099E0,7.522058E0,5.947331E0,5.0771885E0,5.003243E0,3.0346467E0,4.931223E0,4.1798596E0,1.8855934E0,3.2440896E0,7.1494102E0,8.432628E0,5.595727E0,3.7981758E0,6.7581306E0,5.611091E0,2.8025877E0,5.041101E0,7.7872896E0,5.8297634E0,5.9172554E0,3.448108E0],"split_indices":[1,0,1,1,0,28,0,10,0,17,35,0,11,2,28,0,0,34,10,31,34,32,0,7,35,0,0,0,0,1,39,40,17,10,0,3,1,28,0,0,0,1,0,32,0,1,0,0,35,1,0,9,0,0,0,0,0,0,0,0,0,0,0,0,0,0,0,0,0,0,0,0,0,0,0,0,0,0,0],"split_type":[0,0,0,0,0,0,0,0,0,0,0,0,0,0,0,0,0,0,0,0,0,0,0,0,0,0,0,0,0,0,0,0,0,0,0,0,0,0,0,0,0,0,0,0,0,0,0,0,0,0,0,0,0,0,0,0,0,0,0,0,0,0,0,0,0,0,0,0,0,0,0,0,0,0,0,0,0,0,0],"sum_hessian":[4.666E3,2.725E3,1.941E3,2.237E3,4.88E2,1.456E3,4.85E2,6.06E2,1.631E3,3.51E2,1.37E2,9.25E2,5.31E2,1.34E2,3.51E2,5.94E2,1.2E1,1.35E2,1.496E3,3.38E2,1.3E1,5.8E1,7.9E1,2.16E2,7.09E2,3.41E2,1.9E2,1.22E2,1.2E1,2.41E2,1.1E2,1.61E2,4.33E2,7.5E1,6E1,1.057E3,4.39E2,3.28E2,1E1,7E0,6E0,5.2E1,6E0,2.06E2,1E1,1.22E2,5.87E2,1.53E2,1.88E2,1.91E2,5E1,5.7E1,5.3E1,8E0,1.53E2,4.23E2,1E1,5.9E1,1.6E1,6.79E2,3.78E2,4.25E2,1.4E1,1.99E2,1.29E2,4.1E1,1.1E1,1.24E2,8.2E1,1.04E2,1.8E1,4.84E2,1.03E2,2.7E1,1.61E2,1.39E2,5.2E1,5E1,7E0],"tree_param":{"num_deleted":"0","num_feature":"41","num_nodes":"79","size_leaf_vector":"0"}},{"base_weights":[5.1791374E1,4.8088802E1,6.45157E1,4.4678898E1,5.3486748E1,6.918264E1,5.2577938E1,4.762882E1,3.922138E1,5.8336914E1,5.0349583E1,6.54562E1,8.172467E1,5.3586494E1,2.1300676E1,4.2469173E1,4.977111E1,3.1913197E1,4.2150322E1,4.330153E1,5.9545773E1,5.3415485E1,4.6794785E1,7.485967E1,6.2489697E1,9.3445915E1,7.793753E1,5.7299805E1,4.5764633E1,4.5648685E1,3.8069878E1,5.5146496E1,4.7574547E1,3.351162E1,2.1760136E1,4.3928185E1,3.4919716E1,6.5313896E1,5.7293167E1,5.4098804E1,3.1413927E1,4.755992E1,2.9726122E1,6.9103455E1,8.2985535E1,4.7367195E1,6.388983E1,5.5486446E1,7.377884E1,2.1617952E1,4.710444E1,5.4676723E1,4.4415276E1,3.8792988E1,1.9538324E1,6.648793E1,5.366368E1,4.7867634E1,1.53233E1,3.462671E1,2.257031E1,1.6372612E1,2.6797813E1,4.680706E1,3.9941628E1,3.0055336E1,3.950798E1,5.7997322E1,3.690252E1,4.2830822E1,5.5064598E1,4.4695435E1,5.1796993E1,2.2368408E1,3.6233505E1,5.3988735E1,3.8174767E1,5.9760544E1,6.851924E1,2.6280083E1,4.851021E1],"categories":[],"categories_nodes":[],"categories_segments":[],"categories_sizes":[],"default_left":[1,1,1,1,1,1,1,1,1,1,1,1,1,1,0,1,1,1,1,0,1,1,1,1,1,0,0,1,1,1,1,1,1,1,1,1,1,0,1,1,0,1,1,0,0,1,1,0,0,0,1,0,0,0,0,0,0,0,0,0,0,0,0,0,0,0,0,0,0,0,0,0,0,0,0,0,0,0,0,0,0],"id":8,"left_children":[1,3,5,7,9,11,13,15,17,19,21,23,25,27,-1,29,31,33,35,-1,37,39,41,43,45,-1,-1,47,49,51,53,55,57,59,61,63,65,-1,67,69,-1,71,73,-1,-1,75,77,-1,-1,-1,79,-1,-1,-1,-1,-1,-1,-1,-1,-1,-1,-1,-1,-1,-1,-1,-1,-1,-1,-1,-1,-1,-1,-1,-1,-1,-1,-1,-1,-1,-1],"loss_changes":[2.16773E5,6.4223E4,5.4805E4,3.39365E4,1.830425E4,2.97505E4,8.2905E3,1.37925E4,1.5479375E4,7.27275E3,6.81875E3,1.1613E4,1.74625E2,5.7716875E3,0E0,4.262875E3,9.31375E3,2.9872031E3,5.639125E3,0E0,2.741625E3,5.096E3,3.8624375E3,5.799375E2,6.50175E3,0E0,0E0,1.6436875E3,2.1521875E3,2.8853125E2,1.7345312E3,1.2585E3,6.119375E3,1.6097656E3,4.8403027E2,3.226125E3,1.3792812E3,0E0,3.129125E3,2.39725E3,0E0,2.3576875E3,1.4710352E2,0E0,0E0,4.9545312E2,3.723875E3,0E0,0E0,0E0,1.418375E3,0E0,0E0,0E0,0E0,0E0,0E0,0E0,0E0,0E0,0E0,0E0,0E0,0E0,0E0,0E0,0E0,0E0,0E0,0E0,0E0,0E0,0E0,0E0,0E0,0E0,0E0,0E0,0E0,0E0,0E0],"parents":[2147483647,0,0,1,1,2,2,3,3,4,4,5,5,6,6,7,7,8,8,9,9,10,10,11,11,12,12,13,13,15,15,16,16,17,17,18,18,20,20,21,21,22,22,23,23,24,24,27,27,28,28,29,29,30,30,31,31,32,32,33,33,34,34,35,35,36,36,38,38,39,39,41,41,42,42,45,45,46,46,50,50],"right_children":[2,4,6,8,10,12,14,16,18,20,22,24,26,28,-1,30,32,34,36,-1,38,40,42,44,46,-1,-1,48,50,52,54,56,58,60,62,64,66,-1,68,70,-1,72,74,-1,-1,76,78,-1,-1,-1,80,-1,-1,-1,-1,-1,-1,-1,-1,-1,-1,-1,-1,-1,-1,-1,-1,-1,-1,-1,-1,-1,-1,-1,-1,-1,-1,-1,-1,-1,-1],"split_conditions":[3.484903E-1,-9.536743E-7,5.52367E-1,3.5730344E-1,-1.5771985E-1,-9.536743E-7,-9.536743E-7,-8.452549E-1,-9.536743E-7,-8.452549E-1,-9.536743E-7,-1.2278225E0,-1.2530031E0,1.4107945E0,2.1300676E0,-3.7148184E-1,-8.394959E-1,2.1179175E0,1.2943289E0,4.330153E0,-1.093868E0,-9.536743E-7,2.188953E0,-9.536743E-7,-9.536743E-7,9.344592E0,7.793753E0,2.9397907E0,1.459512E0,-2.0087786E0,-9.536743E-7,-2.0070796E0,-9.536743E-7,-9.536743E-7,2.5402427E0,-9.536743E-7,-3.3572954E-1,6.5313897E0,-9.536743E-7,-1.1800859E0,3.1413927E0,-9.536743E-7,-4.457216E-2,6.9103456E0,8.298553E0,-5.5227E-1,-9.536743E-7,5.5486445E0,7.377884E0,2.1617954E0,6.105319E-1,5.4676723E0,4.441528E0,3.879299E0,1.9538325E0,6.648793E0,5.3663683E0,4.7867637E0,1.53233E0,3.462671E0,2.2570312E0,1.6372613E0,2.6797814E0,4.680706E0,3.9941628E0,3.0055337E0,3.950798E0,5.799732E0,3.690252E0,4.2830825E0,5.5064597E0,4.4695435E0,5.1796994E0,2.236841E0,3.6233506E0,5.398874E0,3.8174767E0,5.9760547E0,6.8519244E0,2.6280084E0,4.851021E0],"split_indices":[1,38,0,0,0,6,17,1,35,1,28,0,0,0,0,0,0,0,0,0,0,17,0,37,35,0,0,1,0,0,17,0,33,25,0,28,1,0,17,1,0,11,1,0,0,0,37,0,0,0,1,0,0,0,0,0,0,0,0,0,0,0,0,0,0,0,0,0,0,0,0,0,0,0,0,0,0,0,0,0,0],"split_type":[0,0,0,0,0,0,0,0,0,0,0,0,0,0,0,0,0,0,0,0,0,0,0,0,0,0,0,0,0,0,0,0,0,0,0,0,0,0,0,0,0,0,0,0,0,0,0,0,0,0,0,0,0,0,0,0,0,0,0,0,0,0,0,0,0,0,0,0,0,0,0,0,0,0,0,0,0,0,0,0,0],"sum_hessian":[4.666E3,3.618E3,1.048E3,2.223E3,1.395E3,7.5E2,2.98E2,1.438E3,7.85E2,5.41E2,8.54E2,5.83E2,1.67E2,2.88E2,1E1,4.28E2,1.01E3,2.28E2,5.57E2,4.3E1,4.98E2,4.51E2,4.03E2,1.34E2,4.49E2,3.5E1,1.32E2,1.91E2,9.7E1,2.43E2,1.85E2,2.86E2,7.24E2,1.95E2,3.3E1,4.43E2,1.14E2,1.32E2,3.66E2,4.36E2,1.5E1,3.84E2,1.9E1,8.4E1,5E1,4.1E1,4.08E2,1.76E2,1.5E1,6E0,9.1E1,2.4E1,2.19E2,1.77E2,8E0,2.8E1,2.58E2,7.17E2,7E0,1.75E2,2E1,1.8E1,1.5E1,2.51E2,1.92E2,5.9E1,5.5E1,3.52E2,1.4E1,3.8E1,3.98E2,2.36E2,1.48E2,1.1E1,8E0,2.1E1,2E1,2.23E2,1.85E2,7E0,8.4E1],"tree_param":{"num_deleted":"0","num_feature":"41","num_nodes":"81","size_leaf_vector":"0"}},{"base_weights":[4.665244E1,4.1389828E1,5.4015583E1,3.5013256E1,4.3504456E1,5.079749E1,6.35521E1,4.1859737E1,3.1588314E1,4.4930553E1,3.6477837E1,5.420017E1,4.47793E1,7.8650024E1,6.0517403E1,3.9261353E1,5.062334E1,3.3207355E1,2.00215E1,5.5170757E1,4.4142826E1,3.7911785E1,2.860499E1,6.721423E1,5.2631516E1,4.1499336E1,5.0417873E1,5.707573E1,7.04477E1,4.2404278E1,3.468832E1,4.4561855E1,6.0987812E1,3.124511E1,3.9952896E1,1.7542929E1,3.592761E1,4.8190483E1,6.387419E1,4.1909805E1,4.8039726E1,3.829461E1,1.6800026E1,3.1205418E1,2.1092627E1,6.086351E1,7.569611E1,5.5044483E1,4.806068E1,3.8830063E1,4.7399296E1,5.3819546E1,4.6254612E1,5.557542E1,7.2576256E1,7.6849815E1,5.9204372E1,4.6446148E1,3.7530956E1,3.6567917E1,1.367083E1,1.7031225E1,3.312675E1,4.1681698E1,1.7670773E1,1.440478E1,2.7064537E1,4.4828465E1,6.3543564E1,4.2469994E1,3.1788977E1,5.0907284E1,4.4215336E1,4.131414E1,3.416517E1,1.8853289E1,3.3193993E1,5.1678345E1,8.053969E1,5.5842243E1,3.3831387E1,4.90655E1,2.4387878E1,4.421181E1,3.5558823E1,5.6383476E1,3.9472458E1,4.065744E1,8.564287E1],"categories":[],"categories_nodes":[],"categories_segments":[],"categories_sizes":[],"default_left":[1,1,1,1,1,1,1,1,1,1,1,1,1,0,1,1,1,1,1,1,1,1,1,1,1,1,1,1,1,1,1,0,0,1,1,1,0,1,0,1,1,1,0,1,0,0,1,1,1,1,0,0,0,1,0,0,1,0,0,0,0,0,0,0,0,0,0,0,0,0,0,0,0,0,0,0,0,0,0,0,0,0,0,0,0,0,0,0,0],"id":9,"left_children":[1,3,5,7,9,11,13,15,17,19,21,23,25,-1,27,29,31,33,35,37,39,41,43,45,47,49,51,53,55,57,59,-1,-1,61,63,65,-1,67,-1,69,71,73,-1,75,-1,-1,77,79,81,83,-1,-1,-1,85,-1,-1,87,-1,-1,-1,-1,-1,-1,-1,-1,-1,-1,-1,-1,-1,-1,-1,-1,-1,-1,-1,-1,-1,-1,-1,-1,-1,-1,-1,-1,-1,-1,-1,-1],"loss_changes":[1.78608E5,3.5234E4,5.637E4,1.47166875E4,1.88335E4,2.74095E4,1.750775E4,3.136E3,7.9496562E3,1.1229E4,2.8667812E3,1.5366E4,7.746625E3,0E0,9.9575E3,1.087375E3,2.9782812E2,4.0726875E3,1.6957637E3,4.0299062E3,1.171825E4,1.7246875E3,4.7484375E2,5.6403125E2,6.52E3,3.5455E3,2.1553125E2,3.1525E3,2.7202188E3,2.4628125E2,2.5814375E3,0E0,0E0,7.887375E3,2.6148125E3,1.193793E3,0E0,7.1303125E2,0E0,4.381875E3,3.978125E3,2.167125E3,0E0,3.8127344E2,0E0,0E0,1.4210938E2,7.198375E3,5.8205625E3,2.6706875E3,0E0,0E0,0E0,1.495875E3,0E0,0E0,1.6622469E4,0E0,0E0,0E0,0E0,0E0,0E0,0E0,0E0,0E0,0E0,0E0,0E0,0E0,0E0,0E0,0E0,0E0,0E0,0E0,0E0,0E0,0E0,0E0,0E0,0E0,0E0,0E0,0E0,0E0,0E0,0E0,0E0],"parents":[2147483647,0,0,1,1,2,2,3,3,4,4,5,5,6,6,7,7,8,8,9,9,10,10,11,11,12,12,14,14,15,15,16,16,17,17,18,18,19,19,20,20,21,21,22,22,23,23,24,24,25,25,26,26,27,27,28,28,29,29,30,30,33,33,34,34,35,35,37,37,39,39,40,40,41,41,43,43,46,46,47,47,48,48,49,49,53,53,56,56],"right_children":[2,4,6,8,10,12,14,16,18,20,22,24,26,-1,28,30,32,34,36,38,40,42,44,46,48,50,52,54,56,58,60,-1,-1,62,64,66,-1,68,-1,70,72,74,-1,76,-1,-1,78,80,82,84,-1,-1,-1,86,-1,-1,88,-1,-1,-1,-1,-1,-1,-1,-1,-1,-1,-1,-1,-1,-1,-1,-1,-1,-1,-1,-1,-1,-1,-1,-1,-1,-1,-1,-1,-1,-1,-1,-1],"split_conditions":[1.7379586E-1,-9.536743E-7,1.8333929E0,-4.7686696E-1,8.6649096E-1,-9.536743E-7,-1.2427074E0,-9.536743E-7,1.5936418E0,-1.5996853E0,1.9221243E0,-1.4487591E0,-9.536743E-7,7.8650026E0,-9.536743E-7,-9.536743E-7,-9.536743E-7,-3.502874E-1,-9.536743E-7,-9.536743E-7,-4.521925E-1,-9.536743E-7,-9.536743E-7,-9.536743E-7,3.6021206E-1,-9.536743E-7,2.6320198E-1,-9.536743E-7,2.1391082E0,-1.0608943E0,-1.1364124E0,4.456186E0,6.098781E0,-9.536743E-7,-9.536743E-7,-3.3572954E-1,3.5927608E0,-9.536743E-7,6.387419E0,-9.536743E-7,-9.536743E-7,-9.536743E-7,1.6800026E0,1.9964654E0,2.1092627E0,6.086351E0,3.1937456E-1,-9.536743E-7,-9.536743E-7,-2.29494E-1,4.7399297E0,5.3819547E0,4.625461E0,1.8137659E0,7.2576256E0,7.684982E0,2.9397907E0,4.6446147E0,3.7530956E0,3.6567917E0,1.367083E0,1.7031225E0,3.3126752E0,4.16817E0,1.7670773E0,1.4404781E0,2.7064538E0,4.4828467E0,6.3543563E0,4.2469993E0,3.1788976E0,5.0907283E0,4.4215336E0,4.131414E0,3.416517E0,1.8853289E0,3.3193994E0,5.1678348E0,8.053969E0,5.584224E0,3.3831387E0,4.90655E0,2.438788E0,4.421181E0,3.5558822E0,5.6383476E0,3.9472458E0,4.065744E0,8.564287E0],"split_indices":[1,35,1,0,0,28,0,32,0,0,0,0,11,0,6,2,2,1,32,34,1,17,3,32,0,39,0,11,1,0,1,0,0,40,25,1,0,10,0,3,3,28,0,0,0,0,1,10,17,0,0,0,0,0,0,0,1,0,0,0,0,0,0,0,0,0,0,0,0,0,0,0,0,0,0,0,0,0,0,0,0,0,0,0,0,0,0,0,0],"split_type":[0,0,0,0,0,0,0,0,0,0,0,0,0,0,0,0,0,0,0,0,0,0,0,0,0,0,0,0,0,0,0,0,0,0,0,0,0,0,0,0,0,0,0,0,0,0,0,0,0,0,0,0,0,0,0,0,0,0,0,0,0,0,0,0,0,0,0,0,0,0,0,0,0,0,0,0,0,0,0,0,0,0,0,0,0,0,0,0,0],"sum_hessian":[4.666E3,2.725E3,1.941E3,6.83E2,2.042E3,1.456E3,4.85E2,2.24E2,4.59E2,1.693E3,3.49E2,9.25E2,5.31E2,7.7E1,4.08E2,1.77E2,4.7E1,4.01E2,5.8E1,1.16E2,1.577E3,2.92E2,5.7E1,9.5E1,8.3E2,3.41E2,1.9E2,3.08E2,1E2,1E2,7.7E1,3.3E1,1.4E1,3.15E2,8.6E1,5.2E1,6E0,6.8E1,4.8E1,1.01E3,5.67E2,2.86E2,6E0,4E1,1.7E1,5.9E1,3.6E1,5.36E2,2.94E2,2.4E2,1.01E2,9.8E1,9.2E1,2.85E2,2.3E1,6E1,4E1,5E1,5E1,7E1,7E0,3.8E1,2.77E2,7.9E1,7E0,4.1E1,1.1E1,5.9E1,9E0,9.54E2,5.6E1,3.17E2,2.5E2,1.6E2,1.26E2,7E0,3.3E1,8E0,2.8E1,5.15E2,2.1E1,2.81E2,1.3E1,8.6E1,1.54E2,2.69E2,1.6E1,2.5E1,1.5E1],"tree_param":{"num_deleted":"0","num_feature":"41","num_nodes":"89","size_leaf_vector":"0"}},{"base_weights":[4.202935E1,3.8993416E1,5.2463108E1,3.6100754E1,4.3573856E1,5.6345444E1,4.2536358E1,3.8571213E1,3.153193E1,4.7612053E1,4.096301E1,5.324138E1,6.680038E1,4.3392746E1,1.6169735E1,3.4280815E1,4.0353615E1,2.5647709E1,3.3890274E1,3.4984062E1,4.8630127E1,4.3593735E1,3.7918324E1,4.942549E1,5.84672E1,7.423525E1,6.252468E1,4.65775E1,3.6710453E1,3.879084E1,3.1938093E1,4.490192E1,3.8497456E1,2.3914524E1,3.3995197E1,3.5327477E1,2.7917852E1,3.818764E1,2.6244629E1,5.3073357E1,4.6605423E1,4.4156105E1,2.5509449E1,3.854114E1,2.4033213E1,5.1173077E1,3.8382065E1,5.9288456E1,3.0709398E1,4.50282E1,6.0805553E1,3.097946E1,4.25155E1,2.1787756E1,3.9643356E1,2.9802088E1,3.9093636E1,5.4534855E1,4.3649963E1,3.8741383E1,1.1792849E1,2.5544868E1,1.1936813E1,3.6151207E1,1.9590706E1,3.782789E1,3.1884527E1,2.360702E1,3.2034603E1,4.7231155E1,2.9440258E1,3.470198E1,4.4969524E1,3.6221043E1,4.1972828E1,1.7941954E1,2.9484531E1,5.4925404E1,4.4202164E1,4.1856228E1,2.1943642E1,6.319401E1,5.225931E1,5.456216E1,4.339502E1,2.1708506E1,3.8481792E1],"categories":[],"categories_nodes":[],"categories_segments":[],"categories_sizes":[],"default_left":[1,1,1,1,1,1,1,1,1,1,1,1,1,1,0,1,1,1,1,1,1,1,1,1,1,0,0,1,1,1,1,1,1,1,1,1,1,0,0,0,1,1,0,1,1,1,1,1,0,1,0,1,0,0,0,0,0,0,0,0,0,0,0,0,0,0,0,0,0,0,0,0,0,0,0,0,0,0,0,0,0,0,0,0,0,0,0],"id":10,"left_children":[1,3,5,7,9,11,13,15,17,19,21,23,25,27,-1,29,31,33,35,37,39,41,43,45,47,-1,-1,49,51,53,55,57,59,61,63,65,67,-1,-1,-1,69,71,-1,73,75,77,79,81,-1,83,-1,85,-1,-1,-1,-1,-1,-1,-1,-1,-1,-1,-1,-1,-1,-1,-1,-1,-1,-1,-1,-1,-1,-1,-1,-1,-1,-1,-1,-1,-1,-1,-1,-1,-1,-1,-1],"loss_changes":[1.45787E5,4.63775E4,3.803075E4,2.38865E4,1.276775E4,2.08155E4,6.0498125E3,9.621E3,1.00380625E4,5.26675E3,5.195375E3,8.755875E3,6.99125E2,4.4404375E3,0E0,3.2937812E3,6.806625E3,2.5001406E3,3.803375E3,2.2966797E2,2.015625E3,3.4704375E3,2.5674375E3,4.6748125E3,3.67325E3,0E0,0E0,1.4944062E3,1.9432344E3,1.1946094E3,3.2368125E3,1.08075E3,4.265875E3,3.4639375E3,4.4085156E2,2.6334375E3,1.2491328E3,0E0,0E0,0E0,2.3795625E3,1.8000625E3,0E0,1.545E3,1.3509766E2,5.262375E3,1.9941172E3,3.094E3,0E0,3.8828125E2,0E0,2.8509688E3,0E0,0E0,0E0,0E0,0E0,0E0,0E0,0E0,0E0,0E0,0E0,0E0,0E0,0E0,0E0,0E0,0E0,0E0,0E0,0E0,0E0,0E0,0E0,0E0,0E0,0E0,0E0,0E0,0E0,0E0,0E0,0E0,0E0,0E0,0E0],"parents":[2147483647,0,0,1,1,2,2,3,3,4,4,5,5,6,6,7,7,8,8,9,9,10,10,11,11,12,12,13,13,15,15,16,16,17,17,18,18,19,19,20,20,21,21,22,22,23,23,24,24,27,27,28,28,29,29,30,30,31,31,32,32,33,33,34,34,35,35,36,36,40,40,41,41,43,43,44,44,45,45,46,46,47,47,49,49,51,51],"right_children":[2,4,6,8,10,12,14,16,18,20,22,24,26,28,-1,30,32,34,36,38,40,42,44,46,48,-1,-1,50,52,54,56,58,60,62,64,66,68,-1,-1,-1,70,72,-1,74,76,78,80,82,-1,84,-1,86,-1,-1,-1,-1,-1,-1,-1,-1,-1,-1,-1,-1,-1,-1,-1,-1,-1,-1,-1,-1,-1,-1,-1,-1,-1,-1,-1,-1,-1,-1,-1,-1,-1,-1,-1],"split_conditions":[3.484903E-1,-9.536743E-7,5.52367E-1,3.5730344E-1,-1.5771985E-1,-9.536743E-7,-9.536743E-7,-8.452549E-1,-9.536743E-7,-8.452549E-1,-9.536743E-7,-9.536743E-7,-9.285927E-1,1.4107945E0,1.6169735E0,-9.638842E-1,-8.394959E-1,-9.536743E-7,1.3031657E0,-9.536743E-7,-1.0436456E0,-9.536743E-7,2.188953E0,-9.536743E-7,-9.536743E-7,7.4235253E0,6.252468E0,2.9397907E0,-9.536743E-7,-9.536743E-7,-9.536743E-7,-2.0070796E0,-9.536743E-7,-9.536743E-7,1.7379586E-1,-9.536743E-7,-3.3572954E-1,3.8187642E0,2.6244628E0,5.307336E0,-9.536743E-7,-1.1800859E0,2.550945E0,-9.536743E-7,-4.457216E-2,-9.536743E-7,1.7460456E0,-1.7832965E-1,3.0709398E0,4.9406898E-1,6.0805554E0,1.3093096E0,4.25155E0,2.1787755E0,3.9643357E0,2.9802089E0,3.9093635E0,5.4534855E0,4.3649964E0,3.8741384E0,1.1792849E0,2.554487E0,1.1936814E0,3.6151206E0,1.9590706E0,3.782789E0,3.1884527E0,2.360702E0,3.2034605E0,4.7231154E0,2.9440258E0,3.4701982E0,4.4969525E0,3.6221044E0,4.197283E0,1.7941954E0,2.9484532E0,5.4925404E0,4.4202166E0,4.1856227E0,2.1943643E0,6.3194013E0,5.225931E0,5.4562163E0,4.339502E0,2.1708505E0,3.8481793E0],"split_indices":[1,38,0,0,0,6,17,1,35,1,28,37,0,0,0,0,0,32,0,18,0,17,0,2,7,0,0,1,36,40,30,0,33,25,1,28,1,0,0,0,17,1,0,11,1,28,1,0,0,1,0,1,0,0,0,0,0,0,0,0,0,0,0,0,0,0,0,0,0,0,0,0,0,0,0,0,0,0,0,0,0,0,0,0,0,0,0],"split_type":[0,0,0,0,0,0,0,0,0,0,0,0,0,0,0,0,0,0,0,0,0,0,0,0,0,0,0,0,0,0,0,0,0,0,0,0,0,0,0,0,0,0,0,0,0,0,0,0,0,0,0,0,0,0,0,0,0,0,0,0,0,0,0,0,0,0,0,0,0,0,0,0,0,0,0,0,0,0,0,0,0,0,0,0,0,0,0],"sum_hessian":[4.666E3,3.618E3,1.048E3,2.223E3,1.395E3,7.5E2,2.98E2,1.438E3,7.85E2,5.41E2,8.54E2,5.83E2,1.67E2,2.88E2,1E1,4.28E2,1.01E3,2.28E2,5.57E2,4.3E1,4.98E2,4.51E2,4.03E2,3.43E2,2.4E2,5.5E1,1.12E2,1.91E2,9.7E1,1.41E2,2.87E2,2.86E2,7.24E2,1.92E2,3.6E1,4.45E2,1.12E2,2.9E1,1.4E1,1.48E2,3.5E2,4.36E2,1.5E1,3.84E2,1.9E1,2.93E2,5E1,2.32E2,8E0,1.76E2,1.5E1,5.2E1,4.5E1,8E0,1.33E2,2.25E2,6.2E1,2.8E1,2.58E2,7.17E2,7E0,1.68E2,2.4E1,3E1,6E0,2.52E2,1.93E2,5.8E1,5.4E1,3.36E2,1.4E1,3.8E1,3.98E2,2.36E2,1.48E2,1.1E1,8E0,1.86E2,1.07E2,4E1,1E1,1.44E2,8.8E1,2.1E1,1.55E2,2.5E1,2.7E1],"tree_param":{"num_deleted":"0","num_feature":"41","num_nodes":"87","size_leaf_vector":"0"}},{"base_weights":[3.7861687E1,3.352191E1,4.3933964E1,2.8155903E1,3.530205E1,4.71956E1,3.7423332E1,3.3835175E1,2.531679E1,3.7487343E1,3.1852757E1,4.4083366E1,5.49027E1,3.5377274E1,4.3506645E1,3.1566124E1,4.1544662E1,2.6671194E1,1.5659376E1,3.4497883E1,4.0042816E1,3.4282024E1,2.8855467E1,5.5299217E1,4.273137E1,5.723443E1,3.8602192E1,3.0307713E1,3.7967327E1,4.5320038E1,3.375235E1,4.0091488E1,2.9911057E1,3.6140194E1,5.1025143E1,2.4961075E1,3.257609E1,1.8077946E1,4.6801486E0,4.1637695E1,3.3324463E1,4.2159554E1,3.565825E1,2.8292898E1,3.5630867E1,3.025983E1,2.313551E1,5.8929344E1,4.4880333E1,3.6274185E1,4.416251E1,5.426638E1,6.601034E1,2.2124773E1,4.3348255E1,3.6663204E1,2.600464E1,4.123368E1,3.5307922E1,4.6665344E1,2.9927988E1,3.0863369E1,1.825142E1,1.2252607E1,2.6654129E1,3.402679E1,1.3997086E1,1.5702272E1,2.9749426E1,3.687067E1,4.733809E1,3.3575306E1,2.1267525E1,4.447375E1,3.9152042E1,2.4078688E1,3.6869507E1,2.9884947E1,1.1528378E1,3.7537758E1,2.9662617E1,1.3731612E1,3.0621412E1,1.5940426E1,2.41079E1,5.115646E1,3.1726109E1,3.8592506E1,2.6820429E1,4.5424507E1,3.6809025E1,5.8442043E1,4.211926E1,6.819237E1,3.8939045E1,2.8400766E1,1.2688097E1,3.252818E1,4.724076E1,4.2274666E1,3.1550495E1,1.3397991E1,3.0143648E1,3.5645535E1,2.1630678E1],"categories":[],"categories_nodes":[],"categories_segments":[],"categories_sizes":[],"default_left":[1,1,1,1,1,1,1,1,1,1,1,1,1,1,1,1,1,1,1,1,1,1,1,1,1,1,1,1,1,0,0,1,1,0,0,1,1,1,0,1,1,1,1,1,1,1,1,0,1,1,1,1,1,1,1,1,1,0,1,0,0,0,0,0,0,0,0,0,0,0,0,0,0,0,0,0,0,0,0,0,0,0,0,0,0,0,0,0,0,0,0,0,0,0,0,0,0,0,0,0,0,0,0,0,0],"id":11,"left_children":[1,3,5,7,9,11,13,15,17,19,21,23,25,27,29,31,33,35,37,39,41,43,45,47,49,51,53,55,57,-1,-1,59,61,-1,-1,63,65,67,-1,69,71,73,75,77,79,81,83,-1,85,87,89,91,93,95,97,99,101,-1,103,-1,-1,-1,-1,-1,-1,-1,-1,-1,-1,-1,-1,-1,-1,-1,-1,-1,-1,-1,-1,-1,-1,-1,-1,-1,-1,-1,-1,-1,-1,-1,-1,-1,-1,-1,-1,-1,-1,-1,-1,-1,-1,-1,-1,-1,-1],"loss_changes":[1.215135E5,2.50455E4,3.9473E4,1.017225E4,1.42055E4,2.8522E4,6.588625E3,2.6245469E3,5.5991562E3,8.12975E3,4.8285E3,1.1648375E4,1.173975E4,5.33575E3,1.3004688E3,1.3124219E3,6.153203E2,3.2463125E3,1.4820801E3,3.4800625E3,4.6685E3,2.5140938E3,2.223875E3,9.86125E2,6.059E3,4.727E3,2.8728672E3,3.7504688E3,1.349875E3,0E0,0E0,3.4054688E2,1.1355469E3,0E0,0E0,6.4725E3,1.8685938E3,8.6379297E2,0E0,3.7417188E2,8.1025E2,1.342E3,2.2399688E3,1.924125E3,2.8925625E3,1.3066875E3,1.474414E2,0E0,7.711758E2,2.3839688E3,4.58275E3,9.9146875E3,1.834E3,4.095669E2,2.1679688E1,5.884297E2,5.1271094E3,0E0,8.321875E1,0E0,0E0,0E0,0E0,0E0,0E0,0E0,0E0,0E0,0E0,0E0,0E0,0E0,0E0,0E0,0E0,0E0,0E0,0E0,0E0,0E0,0E0,0E0,0E0,0E0,0E0,0E0,0E0,0E0,0E0,0E0,0E0,0E0,0E0,0E0,0E0,0E0,0E0,0E0,0E0,0E0,0E0,0E0,0E0,0E0,0E0],"parents":[2147483647,0,0,1,1,2,2,3,3,4,4,5,5,6,6,7,7,8,8,9,9,10,10,11,11,12,12,13,13,14,14,15,15,16,16,17,17,18,18,19,19,20,20,21,21,22,22,23,23,24,24,25,25,26,26,27,27,28,28,31,31,32,32,35,35,36,36,37,37,39,39,40,40,41,41,42,42,43,43,44,44,45,45,46,46,48,48,49,49,50,50,51,51,52,52,53,53,54,54,55,55,56,56,58,58],"right_children":[2,4,6,8,10,12,14,16,18,20,22,24,26,28,30,32,34,36,38,40,42,44,46,48,50,52,54,56,58,-1,-1,60,62,-1,-1,64,66,68,-1,70,72,74,76,78,80,82,84,-1,86,88,90,92,94,96,98,100,102,-1,104,-1,-1,-1,-1,-1,-1,-1,-1,-1,-1,-1,-1,-1,-1,-1,-1,-1,-1,-1,-1,-1,-1,-1,-1,-1,-1,-1,-1,-1,-1,-1,-1,-1,-1,-1,-1,-1,-1,-1,-1,-1,-1,-1,-1,-1,-1],"split_conditions":[1.7379586E-1,-9.536743E-7,-9.536743E-7,-4.7686696E-1,3.5776514E-1,1.600467E0,-9.536743E-7,-9.536743E-7,1.5936418E0,-6.851184E-1,-9.536743E-7,-1.4487591E0,-9.536743E-7,-9.536743E-7,9.225769E-1,-1.7733265E0,-9.536743E-7,-3.502874E-1,-9.536743E-7,-1.463764E0,-9.536743E-7,-9.1804427E-1,1.3105156E0,-9.536743E-7,-9.536743E-7,2.9397907E0,-9.536743E-7,-2.4151638E-1,2.4876036E-1,4.532004E0,3.375235E0,-9.536743E-7,-9.536743E-7,3.6140194E0,5.1025143E0,-9.536743E-7,-9.536743E-7,-9.536743E-7,4.6801487E-1,-9.9083364E-1,-9.536743E-7,-2.436494E-1,-5.5409753E-1,-1.1072966E0,1.1061721E0,3.7076628E-1,1.4559015E0,5.8929343E0,-9.536743E-7,3.886244E-1,9.8173773E-1,1.8770664E0,3.129043E0,-8.338818E-1,-9.536743E-7,-9.536743E-7,-9.536743E-7,4.1233683E0,2.7929251E0,4.6665344E0,2.9927988E0,3.0863369E0,1.8251419E0,1.2252607E0,2.665413E0,3.4026792E0,1.3997086E0,1.5702273E0,2.9749427E0,3.687067E0,4.733809E0,3.3575306E0,2.1267526E0,4.4473753E0,3.9152043E0,2.4078689E0,3.6869507E0,2.9884946E0,1.1528378E0,3.7537758E0,2.9662616E0,1.3731612E0,3.0621412E0,1.5940427E0,2.4107902E0,5.115646E0,3.172611E0,3.8592508E0,2.6820428E0,4.542451E0,3.6809025E0,5.8442044E0,4.211926E0,6.8192368E0,3.8939044E0,2.8400767E0,1.2688097E0,3.2528179E0,4.7240763E0,4.2274666E0,3.1550496E0,1.3397992E0,3.014365E0,3.5645535E0,2.1630678E0],"split_indices":[1,35,28,0,0,1,37,32,0,1,28,0,2,38,0,0,2,1,30,0,3,1,0,30,35,1,37,0,0,0,0,29,17,0,0,40,25,32,0,1,3,0,1,1,0,0,0,0,3,0,0,1,1,0,39,3,35,0,0,0,0,0,0,0,0,0,0,0,0,0,0,0,0,0,0,0,0,0,0,0,0,0,0,0,0,0,0,0,0,0,0,0,0,0,0,0,0,0,0,0,0,0,0,0,0],"split_type":[0,0,0,0,0,0,0,0,0,0,0,0,0,0,0,0,0,0,0,0,0,0,0,0,0,0,0,0,0,0,0,0,0,0,0,0,0,0,0,0,0,0,0,0,0,0,0,0,0,0,0,0,0,0,0,0,0,0,0,0,0,0,0,0,0,0,0,0,0,0,0,0,0,0,0,0,0,0,0,0,0,0,0,0,0,0,0,0,0,0,0,0,0,0,0,0,0,0,0,0,0,0,0,0,0],"sum_hessian":[4.666E3,2.725E3,1.941E3,6.83E2,2.042E3,1.289E3,6.52E2,2.24E2,4.59E2,1.244E3,7.98E2,9.23E2,3.66E2,4.93E2,1.59E2,1.77E2,4.7E1,4.01E2,5.8E1,5.8E2,6.64E2,4.35E2,3.63E2,9.5E1,8.28E2,3.18E2,4.8E1,1.71E2,3.22E2,1.31E2,2.8E1,2.5E1,1.52E2,3.3E1,1.4E1,3.15E2,8.6E1,4.7E1,1.1E1,7.7E1,5.03E2,4.42E2,2.22E2,8.4E1,3.51E2,2.88E2,7.5E1,6.7E1,2.8E1,1.55E2,6.73E2,2.43E2,7.5E1,1.2E1,3.6E1,6.6E1,1.05E2,1.38E2,1.84E2,1.3E1,1.2E1,1.39E2,1.3E1,3.8E1,2.77E2,7.9E1,7E0,4.1E1,6E0,4.6E1,3.1E1,4.91E2,1.2E1,2.42E2,2E2,2.3E1,1.99E2,7.6E1,8E0,2.62E2,8.9E1,7E0,2.81E2,1.1E1,6.4E1,1.7E1,1.1E1,1.22E2,3.3E1,5.7E2,1.03E2,1.78E2,6.5E1,6.8E1,7E0,6E0,6E0,1.2E1,2.4E1,2.8E1,3.8E1,2.7E1,7.8E1,1.78E2,6E0],"tree_param":{"num_deleted":"0","num_feature":"41","num_nodes":"105","size_leaf_vector":"0"}},{"base_weights":[3.411279E1,3.0200043E1,3.9587578E1,2.5391472E1,3.1795177E1,3.716324E1,4.6774155E1,3.317704E1,2.3625338E1,3.376139E1,2.8691637E1,4.2334072E1,3.4869797E1,5.9125626E1,4.4304256E1,3.7020695E1,2.6538376E1,2.449872E1,1.1637061E1,3.107203E1,3.6060276E1,2.6673986E1,3.1804823E1,4.459679E1,3.6084755E1,3.257225E1,3.9965935E1,4.1642994E1,5.200748E1,4.7108162E1,3.398307E1,2.5501114E1,1.552383E1,1.5068309E1,-6.691436E0,3.8658012E1,3.0140553E1,3.638659E1,1.5271208E1,2.6970596E1,2.312622E0,3.2508038E1,1.5854634E1,4.556549E1,2.4593811E1,3.3216724E1,4.599877E1,3.0210842E1,3.7708923E1,4.0868042E1,3.218092E1,4.254624E1,2.792581E1,5.7263187E1,4.2919533E1,3.5307552E1,2.3565002E1,2.3801573E1,3.2188343E1,1.3539068E1,2.7199476E1,7.264007E0,1.8017435E1,4.3573822E1,3.1035955E1,2.9729841E1,3.8523212E1,3.8082462E1,3.269662E1,2.8712261E1,2.2336935E1,3.0381014E1,3.6871128E1,2.0536263E1,9.191176E0,5.8266357E1,4.3810364E1,3.415063E1,2.1489918E1,-4.9369267E-1,3.059408E1,3.614404E1,4.538648E1,3.644507E1,4.282276E1,3.4921436E1,1.5447064E1,4.336713E1,2.864171E1,2.0063711E1,3.535396E1,2.749162E1,6.530743E1],"categories":[],"categories_nodes":[],"categories_segments":[],"categories_sizes":[],"default_left":[1,1,1,1,1,1,1,1,1,1,1,1,1,0,1,1,0,1,1,1,1,1,1,1,1,1,1,1,1,0,1,1,1,1,0,1,1,1,0,1,0,1,1,1,0,1,0,1,1,1,1,1,1,0,1,0,0,0,0,0,0,0,0,0,0,0,0,0,0,0,0,0,0,0,0,0,0,0,0,0,0,0,0,0,0,0,0,0,0,0,0,0,0],"id":12,"left_children":[1,3,5,7,9,11,13,15,17,19,21,23,25,-1,27,29,-1,31,33,35,37,39,41,43,45,47,49,51,53,-1,55,57,59,61,-1,63,65,67,-1,69,-1,71,73,75,-1,77,-1,79,81,83,85,87,89,-1,91,-1,-1,-1,-1,-1,-1,-1,-1,-1,-1,-1,-1,-1,-1,-1,-1,-1,-1,-1,-1,-1,-1,-1,-1,-1,-1,-1,-1,-1,-1,-1,-1,-1,-1,-1,-1,-1,-1],"loss_changes":[9.87785E4,2.0102E4,3.20965E4,8.6214375E3,1.1498125E4,1.5802375E4,1.2206875E4,2.1815938E3,5.5887812E3,6.57675E3,4.1704375E3,4.6549375E3,1.05825E4,0E0,6.218875E3,7.2791406E2,0E0,4.3002188E3,2.616413E3,2.94025E3,3.9555E3,3.4855E3,2.9504688E3,5.099375E3,1.9694219E3,7.41225E3,8.689375E2,2.640375E3,2.3664062E3,0E0,2.3484375E1,4.5528125E3,9.062803E2,6.5166016E2,0E0,8.957656E2,6.51875E2,2.847375E3,0E0,3.27275E3,0E0,1.6175312E3,2.791853E2,4.24625E3,0E0,3.503203E2,0E0,5.7575E3,9.7871875E2,8.1690625E2,1.1573633E3,2.0451562E3,5.754883E2,0E0,1.236593E4,0E0,0E0,0E0,0E0,0E0,0E0,0E0,0E0,0E0,0E0,0E0,0E0,0E0,0E0,0E0,0E0,0E0,0E0,0E0,0E0,0E0,0E0,0E0,0E0,0E0,0E0,0E0,0E0,0E0,0E0,0E0,0E0,0E0,0E0,0E0,0E0,0E0,0E0],"parents":[2147483647,0,0,1,1,2,2,3,3,4,4,5,5,6,6,7,7,8,8,9,9,10,10,11,11,12,12,14,14,15,15,17,17,18,18,19,19,20,20,21,21,22,22,23,23,24,24,25,25,26,26,27,27,28,28,30,30,31,31,32,32,33,33,35,35,36,36,37,37,39,39,41,41,42,42,43,43,45,45,47,47,48,48,49,49,50,50,51,51,52,52,54,54],"right_children":[2,4,6,8,10,12,14,16,18,20,22,24,26,-1,28,30,-1,32,34,36,38,40,42,44,46,48,50,52,54,-1,56,58,60,62,-1,64,66,68,-1,70,-1,72,74,76,-1,78,-1,80,82,84,86,88,90,-1,92,-1,-1,-1,-1,-1,-1,-1,-1,-1,-1,-1,-1,-1,-1,-1,-1,-1,-1,-1,-1,-1,-1,-1,-1,-1,-1,-1,-1,-1,-1,-1,-1,-1,-1,-1,-1,-1,-1],"split_conditions":[1.7379586E-1,-9.536743E-7,1.8333929E0,-1.053812E0,3.5776514E-1,-5.51125E-1,-1.2427074E0,-9.536743E-7,-9.536743E-7,-6.851184E-1,-9.536743E-7,-9.536743E-7,-9.536743E-7,5.912563E0,-9.536743E-7,-1.7831143E0,2.6538377E0,1.6001147E0,-9.536743E-7,-1.6093346E0,-9.536743E-7,-9.536743E-7,5.7332918E-2,-9.536743E-7,-9.536743E-7,-9.536743E-7,-9.536743E-7,-9.536743E-7,2.1391082E0,4.7108164E0,-9.536743E-7,-9.536743E-7,-9.536743E-7,-3.0168372E-1,-6.691436E-1,-9.536743E-7,-9.536743E-7,-9.536743E-7,1.5271208E0,1.0920906E0,2.312622E-1,-9.536743E-7,-9.536743E-7,-1.8143245E0,2.459381E0,9.016893E-1,4.5998774E0,-5.308107E-1,3.484903E-1,-9.536743E-7,9.4423014E-1,-9.536743E-7,-9.536743E-7,5.726319E0,2.9397907E0,3.5307553E0,2.3565004E0,2.3801572E0,3.2188344E0,1.3539069E0,2.7199476E0,7.2640073E-1,1.8017435E0,4.3573823E0,3.1035955E0,2.972984E0,3.8523214E0,3.8082464E0,3.2696621E0,2.871226E0,2.2336936E0,3.0381014E0,3.6871128E0,2.0536263E0,9.191176E-1,5.826636E0,4.3810363E0,3.4150631E0,2.1489918E0,-4.9369268E-2,3.059408E0,3.614404E0,4.538648E0,3.644507E0,4.282276E0,3.4921436E0,1.5447065E0,4.3367133E0,2.864171E0,2.0063713E0,3.5353959E0,2.749162E0,6.5307426E0],"split_indices":[1,35,1,0,0,0,0,29,17,1,38,3,37,0,6,0,0,0,11,0,17,17,1,7,27,11,19,25,1,0,10,30,32,0,0,2,5,3,0,0,0,30,36,0,0,1,0,0,1,34,0,17,36,0,1,0,0,0,0,0,0,0,0,0,0,0,0,0,0,0,0,0,0,0,0,0,0,0,0,0,0,0,0,0,0,0,0,0,0,0,0,0,0],"split_type":[0,0,0,0,0,0,0,0,0,0,0,0,0,0,0,0,0,0,0,0,0,0,0,0,0,0,0,0,0,0,0,0,0,0,0,0,0,0,0,0,0,0,0,0,0,0,0,0,0,0,0,0,0,0,0,0,0,0,0,0,0,0,0,0,0,0,0,0,0,0,0,0,0,0,0,0,0,0,0,0,0,0,0,0,0,0,0,0,0,0,0,0,0],"sum_hessian":[4.666E3,2.725E3,1.941E3,6.83E2,2.042E3,1.456E3,4.85E2,1.23E2,5.6E2,1.244E3,7.98E2,4.42E2,1.014E3,7.7E1,4.08E2,7.5E1,4.8E1,5.21E2,3.9E1,5.8E2,6.64E2,4.9E2,3.08E2,3.2E2,1.22E2,7.04E2,3.1E2,3.08E2,1E2,1.4E1,6.1E1,4.67E2,5.4E1,3.3E1,6E0,5.9E1,5.21E2,6.53E2,1.1E1,4.84E2,6E0,2.94E2,1.4E1,3.04E2,1.6E1,9.8E1,2.4E1,4.87E2,2.17E2,2.74E2,3.6E1,2.87E2,2.1E1,6E1,4E1,5.2E1,9E0,3.76E2,9.1E1,4.8E1,6E0,1E1,2.3E1,3.3E1,2.6E1,5.01E2,2E1,4.41E2,2.12E2,3.48E2,1.36E2,2.03E2,9.1E1,7E0,7E0,3.3E1,2.71E2,8.9E1,9E0,6E0,4.81E2,1.85E2,3.2E1,9E1,1.84E2,3E1,6E0,2.69E2,1.8E1,1.2E1,9E0,2.5E1,1.5E1],"tree_param":{"num_deleted":"0","num_feature":"41","num_nodes":"93","size_leaf_vector":"0"}},{"base_weights":[3.0732224E1,2.8663855E1,3.9369537E1,2.5676676E1,3.1310078E1,5.0689896E1,3.771059E1,2.6755743E1,1.5189197E1,3.848936E1,2.9816261E1,4.0722958E1,5.433782E1,2.359723E1,3.894679E1,3.0187353E1,2.5117355E1,2.028967E1,6.1417766E0,4.6428883E1,3.6794262E1,2.945548E1,4.902914E1,3.2236282E1,4.853845E0,3.6723804E1,4.276416E1,2.717429E1,3.2993195E1,2.0139965E1,2.6770126E1,2.7366177E1,1.6316147E1,8.133329E0,-3.83118E0,4.931583E1,3.3086227E1,3.4856888E1,4.257771E1,2.8132967E1,3.346864E1,3.9421722E1,5.7821213E1,1.1556032E1,9.557561E-1,3.745864E1,1.5198503E1,4.520546E1,3.458135E1,3.6488895E1,2.643702E1,4.1809772E1,3.1449625E1,9.386612E0,2.181043E1,2.8866793E1,2.3878119E1,4.785241E0,1.7306917E1,4.609578E0,1.0769077E1,3.542559E1,1.7651016E1,2.6217476E1,3.1970158E1,3.441748E1,1.6501999E1,4.6143097E1,2.3227894E1,-1.4479896E0,3.9097497E0,3.700093E1,5.5673416E1,7.119583E0,2.15887E1,4.739213E1,3.332841E1,3.6467907E1,2.0747137E1],"categories":[],"categories_nodes":[],"categories_segments":[],"categories_sizes":[],"default_left":[1,1,1,1,1,1,1,1,1,1,1,0,0,1,1,1,1,1,1,1,1,1,1,0,1,1,1,1,1,1,1,0,1,1,0,0,0,1,0,1,1,1,0,0,1,1,1,1,1,0,0,0,0,0,0,0,0,0,0,0,0,0,0,0,0,0,0,0,0,0,0,0,0,0,0,0,0,0,0],"id":13,"left_children":[1,3,5,7,9,11,13,15,17,19,21,-1,-1,23,25,27,29,31,33,35,37,39,41,-1,43,45,47,49,51,53,55,-1,57,59,-1,-1,-1,61,-1,63,65,67,-1,-1,69,71,73,75,77,-1,-1,-1,-1,-1,-1,-1,-1,-1,-1,-1,-1,-1,-1,-1,-1,-1,-1,-1,-1,-1,-1,-1,-1,-1,-1,-1,-1,-1,-1],"loss_changes":[8.22485E4,2.8989E4,1.49715E4,1.9692E4,2.0237125E4,1.859375E3,1.2829125E4,8.288125E3,7.6279375E3,2.8675E3,1.0027625E4,0E0,0E0,1.0530586E4,4.564875E3,3.4573125E3,8.468875E3,2.5621875E3,1.2625837E3,5.254219E2,1.7092188E3,7.69375E3,1.701875E2,0E0,5.6372107E2,6.7700625E3,3.6306875E3,7.796719E2,2.2506562E3,4.7710547E3,4.27675E3,0E0,7.283203E2,4.3332056E2,0E0,0E0,0E0,1.517625E3,0E0,8.2024375E3,5.8393125E3,7.785547E2,0E0,0E0,1.1217101E2,1.675E3,7.23938E2,3.5368438E3,9.137422E2,0E0,0E0,0E0,0E0,0E0,0E0,0E0,0E0,0E0,0E0,0E0,0E0,0E0,0E0,0E0,0E0,0E0,0E0,0E0,0E0,0E0,0E0,0E0,0E0,0E0,0E0,0E0,0E0,0E0,0E0],"parents":[2147483647,0,0,1,1,2,2,3,3,4,4,5,5,6,6,7,7,8,8,9,9,10,10,13,13,14,14,15,15,16,16,17,17,18,18,19,19,20,20,21,21,22,22,24,24,25,25,26,26,27,27,28,28,29,29,30,30,32,32,33,33,37,37,39,39,40,40,41,41,44,44,45,45,46,46,47,47,48,48],"right_children":[2,4,6,8,10,12,14,16,18,20,22,-1,-1,24,26,28,30,32,34,36,38,40,42,-1,44,46,48,50,52,54,56,-1,58,60,-1,-1,-1,62,-1,64,66,68,-1,-1,70,72,74,76,78,-1,-1,-1,-1,-1,-1,-1,-1,-1,-1,-1,-1,-1,-1,-1,-1,-1,-1,-1,-1,-1,-1,-1,-1,-1,-1,-1,-1,-1,-1],"split_conditions":[-9.536743E-7,-4.521925E-1,-1.2320608E0,-9.536743E-7,-8.696165E-1,3.1937456E-1,-3.3572954E-1,-4.6946147E-1,5.4146194E-1,-1.8150539E0,2.9397907E0,4.0722957E0,5.433782E0,-5.5409753E-1,1.4548883E0,-8.452549E-1,-9.536743E-7,-1.2798179E0,-9.536743E-7,-9.536743E-7,-9.536743E-7,-9.536743E-7,-9.536743E-7,3.2236283E0,-9.536743E-7,1.1200573E0,-9.536743E-7,-2.1826506E0,-1.772357E0,-9.536743E-7,-9.536743E-7,2.7366178E0,-8.452549E-1,-6.996763E-1,-3.83118E-1,4.931583E0,3.3086228E0,-9.536743E-7,4.257771E0,-9.536743E-7,-9.536743E-7,1.915848E-1,5.782121E0,1.1556033E0,8.8669443E-1,-9.536743E-7,1.1005118E0,-9.536743E-7,1.8137659E0,3.6488895E0,2.643702E0,4.1809773E0,3.1449625E0,9.386612E-1,2.1810431E0,2.8866794E0,2.387812E0,4.7852412E-1,1.7306918E0,4.6095783E-1,1.0769078E0,3.5425591E0,1.7651017E0,2.6217477E0,3.1970158E0,3.4417481E0,1.6501999E0,4.61431E0,2.3227894E0,-1.4479896E-1,3.9097497E-1,3.700093E0,5.567342E0,7.1195835E-1,2.15887E0,4.7392135E0,3.3328412E0,3.6467907E0,2.0747137E0],"split_indices":[37,1,0,3,0,1,1,0,0,0,1,0,0,1,1,1,35,0,30,3,39,39,11,0,35,1,28,0,0,40,28,0,1,1,0,0,0,10,0,11,17,0,0,0,0,12,0,2,0,0,0,0,0,0,0,0,0,0,0,0,0,0,0,0,0,0,0,0,0,0,0,0,0,0,0,0,0,0,0],"split_type":[0,0,0,0,0,0,0,0,0,0,0,0,0,0,0,0,0,0,0,0,0,0,0,0,0,0,0,0,0,0,0,0,0,0,0,0,0,0,0,0,0,0,0,0,0,0,0,0,0,0,0,0,0,0,0,0,0,0,0,0,0,0,0,0,0,0,0,0,0,0,0,0,0,0,0,0,0,0,0],"sum_hessian":[4.666E3,3.768E3,8.98E2,1.775E3,1.993E3,1.11E2,7.87E2,1.608E3,1.67E2,3.39E2,1.654E3,3.3E1,7.8E1,6.5E1,7.22E2,5.14E2,1.094E3,1.06E2,6.1E1,5.5E1,2.84E2,1.626E3,2.8E1,4.4E1,2.1E1,4.63E2,2.59E2,2.53E2,2.61E2,2.76E2,8.18E2,3.6E1,7E1,5.1E1,1E1,4.3E1,1.2E1,2.18E2,6.6E1,1.229E3,3.97E2,1.6E1,1.2E1,7E0,1.4E1,4.47E2,1.6E1,1.96E2,6.3E1,1.5E1,2.38E2,3.5E1,2.26E2,3.8E1,2.38E2,4.69E2,3.49E2,6E0,6.4E1,2.3E1,2.8E1,2.1E2,8E0,8.25E2,4.04E2,3.75E2,2.2E1,1E1,6E0,8E0,6E0,4.39E2,8E0,8E0,8E0,1.63E2,3.3E1,5.4E1,9E0],"tree_param":{"num_deleted":"0","num_feature":"41","num_nodes":"79","size_leaf_vector":"0"}},{"base_weights":[2.7682487E1,2.5619875E1,3.477201E1,2.3497017E1,2.8983498E1,3.762753E1,2.7483492E1,2.5072647E1,1.9994555E1,3.0978708E1,2.598528E1,3.5341427E1,4.535048E1,2.8185043E1,6.5532928E0,3.0362968E1,2.4317913E1,1.943266E1,3.3176525E1,2.2389025E1,3.1786676E1,2.7126493E1,2.0738194E1,3.3827934E1,4.3712254E1,5.0864998E1,4.2216286E1,3.0715797E1,2.277722E1,3.2619766E1,2.6124897E1,2.4658821E1,1.2587819E1,1.69256E1,2.2855234E1,2.8308004E1,1.98753E1,2.5224102E1,3.2676388E1,2.5128004E1,3.0095655E1,1.1461617E1,2.148848E1,3.270387E1,4.737622E1,4.6232445E1,3.2391975E1,4.4117268E1,3.4158493E1,2.957631E1,4.154409E1,1.7922604E1,2.7880836E1,3.3532337E1,1.9410757E1,1.1339851E1,2.7333809E1,2.3500042E1,2.838105E1,7.854973E0,1.8529024E1,1.8561178E1,6.4049377E0,2.6933508E1,1.833902E1,2.9712706E1,1.910503E1,4.0871193E1,3.187051E1,2.5475264E1,1.0093357E1,3.3349277E1,2.7670366E1,2.2297832E1,1.6048103E1,2.9849245E1,3.6962963E1,3.6556633E1,2.2095991E1,4.0022278E1,5.1462883E1,1.4668142E1,5.2520527E1,3.786359E1,2.8235191E1,1.0392681E1,2.4005657E1,3.7672604E1,2.4386433E1],"categories":[],"categories_nodes":[],"categories_segments":[],"categories_sizes":[],"default_left":[1,1,1,1,1,1,1,1,1,1,1,1,1,1,0,1,1,1,0,1,1,1,1,1,1,0,1,1,1,1,1,1,1,1,1,0,0,1,1,1,1,0,1,1,0,0,1,1,1,1,0,1,1,0,0,0,0,0,0,0,0,0,0,0,0,0,0,0,0,0,0,0,0,0,0,0,0,0,0,0,0,0,0,0,0,0,0,0,0],"id":14,"left_children":[1,3,5,7,9,11,13,15,17,19,21,23,25,27,-1,29,31,33,-1,35,37,39,41,43,45,-1,47,49,51,53,55,57,59,61,63,-1,-1,65,67,69,71,-1,73,75,-1,-1,77,79,81,83,-1,85,87,-1,-1,-1,-1,-1,-1,-1,-1,-1,-1,-1,-1,-1,-1,-1,-1,-1,-1,-1,-1,-1,-1,-1,-1,-1,-1,-1,-1,-1,-1,-1,-1,-1,-1,-1,-1],"loss_changes":[6.735425E4,2.51605E4,2.079825E4,1.1772E4,7.546E3,1.16565E4,4.205703E3,5.370625E3,4.5030625E3,5.0695E3,2.8147188E3,5.920125E3,7.5628125E2,3.2556094E3,0E0,9.36375E2,5.0640625E3,5.353578E3,0E0,5.5327344E2,3.6074375E3,1.9733125E3,4.8451562E2,6.05E3,9.559531E2,0E0,2.239375E2,1.1649844E3,1.8788047E3,7.715E2,9.412031E2,4.9618125E3,9.79208E2,6.592E3,4.663203E3,0E0,0E0,2.0416172E3,3.0890625E3,1.2099375E3,4.9759375E2,0E0,6.487109E1,4.5380625E3,0E0,0E0,6.951172E0,5.8740625E2,8.534564E3,9.203594E2,0E0,2.132373E3,6.2103906E2,0E0,0E0,0E0,0E0,0E0,0E0,0E0,0E0,0E0,0E0,0E0,0E0,0E0,0E0,0E0,0E0,0E0,0E0,0E0,0E0,0E0,0E0,0E0,0E0,0E0,0E0,0E0,0E0,0E0,0E0,0E0,0E0,0E0,0E0,0E0,0E0],"parents":[2147483647,0,0,1,1,2,2,3,3,4,4,5,5,6,6,7,7,8,8,9,9,10,10,11,11,12,12,13,13,15,15,16,16,17,17,19,19,20,20,21,21,22,22,23,23,24,24,26,26,27,27,28,28,29,29,30,30,31,31,32,32,33,33,34,34,37,37,38,38,39,39,40,40,42,42,43,43,46,46,47,47,48,48,49,49,51,51,52,52],"right_children":[2,4,6,8,10,12,14,16,18,20,22,24,26,28,-1,30,32,34,-1,36,38,40,42,44,46,-1,48,50,52,54,56,58,60,62,64,-1,-1,66,68,70,72,-1,74,76,-1,-1,78,80,82,84,-1,86,88,-1,-1,-1,-1,-1,-1,-1,-1,-1,-1,-1,-1,-1,-1,-1,-1,-1,-1,-1,-1,-1,-1,-1,-1,-1,-1,-1,-1,-1,-1,-1,-1,-1,-1,-1,-1],"split_conditions":[3.484903E-1,-9.536743E-7,5.52367E-1,4.57296E-1,-9.536743E-7,-9.536743E-7,-9.536743E-7,-1.4627945E0,-9.536743E-7,-1.1800859E0,9.310997E-1,2.8524437E0,-9.285927E-1,1.4241004E0,6.553293E-1,-9.536743E-7,-9.536743E-7,-4.521925E-1,3.3176525E0,-9.536743E-7,-9.536743E-7,-9.536743E-7,-9.536743E-7,-9.536743E-7,-9.536743E-7,5.0864997E0,2.1391082E0,2.9397907E0,-9.536743E-7,-9.536743E-7,-9.536743E-7,-9.536743E-7,-9.536743E-7,-9.536743E-7,-9.536743E-7,2.8308005E0,1.98753E0,-9.536743E-7,-1.3539006E0,-9.536743E-7,-2.3756174E-2,1.1461618E0,2.192E0,-9.536743E-7,4.7376223E0,4.623245E0,-9.8472476E-1,2.8599354E-2,2.9397907E0,4.9406898E-1,4.154409E0,1.3093096E0,1.6537353E0,3.3532338E0,1.9410757E0,1.1339852E0,2.733381E0,2.3500042E0,2.838105E0,7.854973E-1,1.8529024E0,1.8561178E0,6.404938E-1,2.6933508E0,1.833902E0,2.9712706E0,1.910503E0,4.0871196E0,3.187051E0,2.5475264E0,1.0093358E0,3.3349278E0,2.7670367E0,2.2297833E0,1.6048104E0,2.9849246E0,3.6962965E0,3.6556633E0,2.2095993E0,4.002228E0,5.1462884E0,1.4668143E0,5.252053E0,3.786359E0,2.8235192E0,1.0392681E0,2.4005659E0,3.7672603E0,2.4386432E0],"split_indices":[1,38,0,0,28,6,17,0,5,1,0,1,0,0,0,29,17,1,0,2,35,11,35,12,17,0,1,1,36,11,40,30,3,3,28,0,0,3,0,17,0,0,0,39,0,0,0,0,1,1,0,1,0,0,0,0,0,0,0,0,0,0,0,0,0,0,0,0,0,0,0,0,0,0,0,0,0,0,0,0,0,0,0,0,0,0,0,0,0],"split_type":[0,0,0,0,0,0,0,0,0,0,0,0,0,0,0,0,0,0,0,0,0,0,0,0,0,0,0,0,0,0,0,0,0,0,0,0,0,0,0,0,0,0,0,0,0,0,0,0,0,0,0,0,0,0,0,0,0,0,0,0,0,0,0,0,0,0,0,0,0,0,0,0,0,0,0,0,0,0,0,0,0,0,0,0,0,0,0,0,0],"sum_hessian":[4.666E3,3.618E3,1.048E3,2.223E3,1.395E3,7.5E2,2.98E2,1.529E3,6.94E2,8.32E2,5.63E2,5.83E2,1.67E2,2.88E2,1E1,1.86E2,1.343E3,6.68E2,2.6E1,7.4E1,7.58E2,4.59E2,1.04E2,4.98E2,8.5E1,5.5E1,1.12E2,1.93E2,9.5E1,1.17E2,6.9E1,1.304E3,3.9E1,3.89E2,2.79E2,1.9E1,5.5E1,9.4E1,6.64E2,2.8E2,1.79E2,9E0,9.5E1,4.63E2,3.5E1,6.7E1,1.8E1,8.7E1,2.5E1,1.78E2,1.5E1,5.1E1,4.4E1,1.08E2,9E0,6E0,6.3E1,1E3,3.04E2,2.3E1,1.6E1,3.36E2,5.3E1,1.44E2,1.35E2,5.2E1,4.2E1,5.5E1,6.09E2,2.73E2,7E0,7.1E1,1.08E2,8E1,1.5E1,2.82E2,1.81E2,1.1E1,7E0,6E1,2.7E1,1.3E1,1.2E1,2.1E1,1.57E2,2.4E1,2.7E1,9E0,3.5E1],"tree_param":{"num_deleted":"0","num_feature":"41","num_nodes":"89","size_leaf_vector":"0"}},{"base_weights":[2.4940565E1,2.3200684E1,3.220717E1,2.0737373E1,2.5383049E1,4.1646637E1,3.0824646E1,2.1652779E1,1.1846736E1,2.7750208E1,2.2050491E1,3.3455517E1,4.4644756E1,1.8915565E1,3.1869146E1,1.9072884E1,2.3496843E1,2.227122E1,8.834974E0,3.3952984E1,2.6563618E1,2.0241213E1,2.5938097E1,3.9530502E1,2.6578926E1,2.6641584E1,2.2525492E0,3.1488192E1,4.891261E1,1.9934183E1,1.6865449E0,2.4021421E1,-4.5371628E-1,1.1118961E1,-4.5901236E-1,3.4795315E1,1.1177571E1,2.4862694E1,3.1251966E1,1.7127857E1,2.223429E1,2.9940512E1,2.2728626E1,-2.1147819E0,7.7048244E0,2.9686882E1,3.4585873E1,2.2254711E1,1.7945976E1,-8.4216175E0,5.8280067E0,2.8382456E1,2.0920807E1,-4.572593E0,1.932336E0,6.3838453E0,1.4782802E1,-7.956825E0,3.7319398E0,3.6985256E1,2.5568644E1,2.6718798E1,2.1170063E1,3.2214996E1,1.6675354E1,2.127552E1,1.2793566E1,2.370604E1,1.9668676E1,2.768107E1,4.1071415E1,2.3999504E1,1.8072834E1,4.6865082E-1,-4.396103E0,3.0336002E1,1.1139868E1,3.6601048E1,2.7999954E1],"categories":[],"categories_nodes":[],"categories_segments":[],"categories_sizes":[],"default_left":[1,1,1,1,1,1,1,1,1,1,1,1,0,1,1,1,1,0,1,1,1,1,1,0,0,0,1,1,0,1,1,1,1,1,1,1,0,1,1,1,1,1,1,1,0,1,1,0,0,0,0,0,0,0,0,0,0,0,0,0,0,0,0,0,0,0,0,0,0,0,0,0,0,0,0,0,0,0,0],"id":15,"left_children":[1,3,5,7,9,11,13,15,17,19,21,23,-1,25,27,29,31,-1,33,35,37,39,41,-1,-1,-1,43,45,-1,47,49,51,53,55,57,59,-1,61,63,65,67,69,71,73,-1,75,77,-1,-1,-1,-1,-1,-1,-1,-1,-1,-1,-1,-1,-1,-1,-1,-1,-1,-1,-1,-1,-1,-1,-1,-1,-1,-1,-1,-1,-1,-1,-1,-1],"loss_changes":[5.825775E4,1.973525E4,1.04485E4,1.41975625E4,1.5118125E4,1.2568594E3,9.199125E3,7.206625E3,5.0777754E3,7.6505625E3,5.3340938E3,3.6967578E2,0E0,8.436748E3,3.1540625E3,1.0089359E4,1.1745625E4,0E0,2.8071133E3,3.1218281E3,7.0380625E3,3.1747344E3,2.6722031E3,0E0,0E0,0E0,5.4015564E2,2.9349375E3,0E0,2.5718438E3,1.4305459E3,1.176525E4,2.1522076E2,1.7445918E3,8.781146E2,2.6105625E3,0E0,4.3965938E3,3.0705E3,3.8266016E3,8.402031E2,1.705E3,4.478828E2,7.867754E1,0E0,5.1519688E3,2.3594688E3,0E0,0E0,0E0,0E0,0E0,0E0,0E0,0E0,0E0,0E0,0E0,0E0,0E0,0E0,0E0,0E0,0E0,0E0,0E0,0E0,0E0,0E0,0E0,0E0,0E0,0E0,0E0,0E0,0E0,0E0,0E0,0E0],"parents":[2147483647,0,0,1,1,2,2,3,3,4,4,5,5,6,6,7,7,8,8,9,9,10,10,11,11,13,13,14,14,15,15,16,16,18,18,19,19,20,20,21,21,22,22,26,26,27,27,29,29,30,30,31,31,32,32,33,33,34,34,35,35,37,37,38,38,39,39,40,40,41,41,42,42,43,43,45,45,46,46],"right_children":[2,4,6,8,10,12,14,16,18,20,22,24,-1,26,28,30,32,-1,34,36,38,40,42,-1,-1,-1,44,46,-1,48,50,52,54,56,58,60,-1,62,64,66,68,70,72,74,-1,76,78,-1,-1,-1,-1,-1,-1,-1,-1,-1,-1,-1,-1,-1,-1,-1,-1,-1,-1,-1,-1,-1,-1,-1,-1,-1,-1,-1,-1,-1,-1,-1,-1],"split_conditions":[-9.536743E-7,-4.521925E-1,-1.2320608E0,-9.536743E-7,3.235909E-1,3.1937456E-1,-3.3572954E-1,-8.452549E-1,-1.2798179E0,-1.2797072E0,-9.536743E-7,-1.5584011E0,4.4644756E0,-5.5409753E-1,-9.536743E-7,-9.536743E-7,-9.536743E-7,2.227122E0,-5.5409753E-1,-9.536743E-7,-9.536743E-7,-9.536743E-7,-9.536743E-7,3.9530504E0,2.6578927E0,2.6641586E0,1.0255797E0,1.4548883E0,4.891261E0,-9.536743E-7,-1.1364124E0,-9.536743E-7,1.3907295E0,-6.996763E-1,1.2418995E0,-9.536743E-7,1.1177572E0,-9.536743E-7,-9.536743E-7,-9.536743E-7,1.0490057E0,3.484903E-1,1.3158159E0,6.7863894E-1,7.704825E-1,1.1200573E0,-9.536743E-7,2.2254713E0,1.7945976E0,-8.421618E-1,5.828007E-1,2.8382456E0,2.0920808E0,-4.5725933E-1,1.932336E-1,6.383845E-1,1.4782802E0,-7.956825E-1,3.7319398E-1,3.6985257E0,2.5568645E0,2.6718798E0,2.1170063E0,3.2214997E0,1.6675354E0,2.127552E0,1.2793566E0,2.370604E0,1.9668677E0,2.7681072E0,4.1071415E0,2.3999505E0,1.8072834E0,4.6865083E-2,-4.396103E-1,3.0336003E0,1.1139868E0,3.6601048E0,2.7999954E0],"split_indices":[37,1,0,3,0,1,1,1,0,0,11,0,0,1,12,10,11,0,1,7,39,38,28,0,0,0,0,1,0,2,1,10,0,1,0,28,0,3,17,28,0,1,0,0,0,1,28,0,0,0,0,0,0,0,0,0,0,0,0,0,0,0,0,0,0,0,0,0,0,0,0,0,0,0,0,0,0,0,0],"split_type":[0,0,0,0,0,0,0,0,0,0,0,0,0,0,0,0,0,0,0,0,0,0,0,0,0,0,0,0,0,0,0,0,0,0,0,0,0,0,0,0,0,0,0,0,0,0,0,0,0,0,0,0,0,0,0,0,0,0,0,0,0,0,0,0,0,0,0,0,0,0,0,0,0,0,0,0,0,0,0],"sum_hessian":[4.666E3,3.768E3,8.98E2,1.775E3,1.993E3,1.11E2,7.87E2,1.608E3,1.67E2,1.161E3,8.32E2,3.3E1,7.8E1,6.5E1,7.22E2,6.75E2,9.33E2,3.6E1,1.31E2,1.82E2,9.79E2,5.72E2,2.6E2,1.5E1,1.8E1,4.4E1,2.1E1,7.09E2,1.3E1,6.43E2,3.2E1,9.13E2,2E1,1.05E2,2.6E1,1.75E2,7E0,7.23E2,2.56E2,2.27E2,3.45E2,1.12E2,1.48E2,1.2E1,9E0,4.55E2,2.54E2,2.92E2,3.51E2,9E0,2.3E1,3.76E2,5.37E2,7E0,1.3E1,4.7E1,5.8E1,9E0,1.7E1,1.39E2,3.6E1,4.77E2,2.46E2,2.39E2,1.7E1,1.14E2,1.13E2,2.14E2,1.31E2,9.6E1,1.6E1,1.13E2,3.5E1,6E0,6E0,4.39E2,1.6E1,1.91E2,6.3E1],"tree_param":{"num_deleted":"0","num_feature":"41","num_nodes":"79","size_leaf_vector":"0"}},{"base_weights":[2.2463188E1,2.089341E1,2.9019394E1,2.348863E1,1.9075996E1,3.758086E1,2.7765709E1,2.1678013E1,2.6915596E1,1.3804348E1,2.0369892E1,3.0304407E1,4.023679E1,1.7070097E1,2.8703669E1,2.560684E1,2.0643642E1,2.888457E1,2.2169508E1,1.1690958E1,1.7169018E1,1.9085402E1,2.3288876E1,3.5824516E1,2.4060925E1,2.4036625E1,2.0444639E0,2.4521221E1,2.9848732E1,2.2702785E1,3.1251913E1,2.1085989E1,7.0182605E0,2.7973377E1,4.0412987E1,2.2765568E1,7.998679E0,1.3306963E1,4.701446E0,2.0243114E1,3.6565343E-1,1.7983349E1,2.2401224E1,2.4211412E1,1.5647778E1,8.394488E0,-1.4785136E0,2.551605E1,1.2252923E1,3.1059965E1,2.4694035E1,2.1221354E1,3.2950134E1,3.256381E1,2.0386534E1,1.8152748E1,2.215352E1,9.501666E0,-1.4345654E0,2.5494242E1,3.3318962E1,5.1172638E1,3.2339466E1,2.528255E1,1.9157463E1,1.4411704E1,7.4516255E-1,6.5660315E0,-8.489545E0,2.4729515E1,1.7122637E1,-6.4373264E0,1.2574452E1,1.8840471E1,1.4319468E1,2.300101E1,5.255975E-2,2.4784496E1,1.2789904E1,1.2168882E1,2.3936161E1,-3.184199E0,9.257268E-1,4.1181693E0,1.7839218E1,3.1533419E1,1.7090221E1,2.6817715E1,1.9255716E1],"categories":[],"categories_nodes":[],"categories_segments":[],"categories_sizes":[],"default_left":[1,1,1,1,1,1,1,1,1,1,1,1,0,1,1,1,1,1,1,1,1,1,1,0,0,0,1,1,1,1,1,1,1,1,1,1,0,1,1,1,1,1,1,1,1,0,1,0,1,1,1,0,0,0,0,0,0,0,0,0,0,0,0,0,0,0,0,0,0,0,0,0,0,0,0,0,0,0,0,0,0,0,0,0,0,0,0,0,0],"id":16,"left_children":[1,3,5,7,9,11,13,15,17,19,21,23,-1,25,27,29,31,33,35,37,39,41,43,-1,-1,-1,45,47,49,51,53,55,57,59,61,63,-1,65,67,69,71,73,75,77,79,-1,81,-1,83,85,87,-1,-1,-1,-1,-1,-1,-1,-1,-1,-1,-1,-1,-1,-1,-1,-1,-1,-1,-1,-1,-1,-1,-1,-1,-1,-1,-1,-1,-1,-1,-1,-1,-1,-1,-1,-1,-1,-1],"loss_changes":[4.74255E4,1.732875E4,8.6058125E3,9.02175E3,1.48749375E4,9.451406E2,7.4153125E3,3.6084062E3,4.3217812E3,2.9351719E3,6.2369375E3,3.0983008E2,0E0,6.859508E3,2.730625E3,2.7003594E3,4.74E3,2.77725E3,1.1693672E3,3.0322969E3,8.670668E3,4.139375E3,3.4277188E3,0E0,0E0,0E0,5.0457324E2,1.6523359E3,2.7480938E3,1.4412422E3,3.0542188E2,2.0559375E3,5.804093E2,3.7624062E3,5.168125E2,9.05125E2,0E0,3.0700742E3,1.359316E3,1.5645234E3,2.3234639E3,2.6759062E3,4.1005625E3,2.8248125E3,1.4676221E3,0E0,6.446086E1,0E0,5.62739E2,2.450625E3,7.771172E2,0E0,0E0,0E0,0E0,0E0,0E0,0E0,0E0,0E0,0E0,0E0,0E0,0E0,0E0,0E0,0E0,0E0,0E0,0E0,0E0,0E0,0E0,0E0,0E0,0E0,0E0,0E0,0E0,0E0,0E0,0E0,0E0,0E0,0E0,0E0,0E0,0E0,0E0],"parents":[2147483647,0,0,1,1,2,2,3,3,4,4,5,5,6,6,7,7,8,8,9,9,10,10,11,11,13,13,14,14,15,15,16,16,17,17,18,18,19,19,20,20,21,21,22,22,26,26,27,27,28,28,29,29,30,30,31,31,32,32,33,33,34,34,35,35,37,37,38,38,39,39,40,40,41,41,42,42,43,43,44,44,46,46,48,48,49,49,50,50],"right_children":[2,4,6,8,10,12,14,16,18,20,22,24,-1,26,28,30,32,34,36,38,40,42,44,-1,-1,-1,46,48,50,52,54,56,58,60,62,64,-1,66,68,70,72,74,76,78,80,-1,82,-1,84,86,88,-1,-1,-1,-1,-1,-1,-1,-1,-1,-1,-1,-1,-1,-1,-1,-1,-1,-1,-1,-1,-1,-1,-1,-1,-1,-1,-1,-1,-1,-1,-1,-1,-1,-1,-1,-1,-1,-1],"split_conditions":[-9.536743E-7,-1.8326047E-1,-1.2320608E0,1.7379586E-1,-9.536743E-7,3.1937456E-1,-3.3572954E-1,-1.4685102E0,-9.536743E-7,-3.502874E-1,-9.536743E-7,-1.5584011E0,4.0236793E0,-5.5409753E-1,-9.536743E-7,-9.536743E-7,-9.536743E-7,-9.536743E-7,-9.536743E-7,-9.536743E-7,-9.536743E-7,-9.536743E-7,1.3888643E0,3.5824516E0,2.4060924E0,2.4036624E0,-9.536743E-7,1.2839501E0,-9.536743E-7,-9.536743E-7,-9.536743E-7,-9.536743E-7,-9.536743E-7,-9.536743E-7,1.265636E0,-9.536743E-7,7.998679E-1,-9.536743E-7,-9.536743E-7,3.886244E-1,1.2104309E0,-9.536743E-7,-9.536743E-7,-9.536743E-7,-9.536743E-7,8.3944887E-1,8.8669443E-1,2.551605E0,1.630383E0,-9.536743E-7,-9.536743E-7,2.1221354E0,3.2950134E0,3.2563808E0,2.0386534E0,1.8152748E0,2.215352E0,9.5016664E-1,-1.4345655E-1,2.5494242E0,3.3318963E0,5.117264E0,3.2339466E0,2.5282552E0,1.9157463E0,1.4411705E0,7.451626E-2,6.5660316E-1,-8.489545E-1,2.4729517E0,1.7122637E0,-6.4373267E-1,1.2574452E0,1.8840472E0,1.4319468E0,2.300101E0,5.255975E-3,2.4784496E0,1.2789904E0,1.2168883E0,2.3936162E0,-3.184199E-1,9.257268E-2,4.1181692E-1,1.7839218E0,3.153342E0,1.7090222E0,2.6817715E0,1.9255717E0],"split_indices":[37,0,0,1,35,1,1,0,28,1,30,0,0,1,34,34,17,6,9,3,19,39,0,0,0,0,35,0,28,10,2,35,2,39,1,3,0,17,30,0,0,10,17,17,36,0,0,0,0,7,22,0,0,0,0,0,0,0,0,0,0,0,0,0,0,0,0,0,0,0,0,0,0,0,0,0,0,0,0,0,0,0,0,0,0,0,0,0,0],"split_type":[0,0,0,0,0,0,0,0,0,0,0,0,0,0,0,0,0,0,0,0,0,0,0,0,0,0,0,0,0,0,0,0,0,0,0,0,0,0,0,0,0,0,0,0,0,0,0,0,0,0,0,0,0,0,0,0,0,0,0,0,0,0,0,0,0,0,0,0,0,0,0,0,0,0,0,0,0,0,0,0,0,0,0,0,0,0,0,0,0],"sum_hessian":[4.666E3,3.768E3,8.98E2,1.547E3,2.221E3,1.11E2,7.87E2,1.017E3,5.3E2,4.4E2,1.781E3,3.3E1,7.8E1,6.5E1,7.22E2,2.07E2,8.1E2,3.71E2,1.59E2,2.73E2,1.67E2,1.242E3,5.39E2,1.5E1,1.8E1,4.4E1,2.1E1,1.6E2,5.62E2,1.4E2,6.7E1,7.84E2,2.6E1,3.47E2,2.4E1,1.52E2,7E0,2.21E2,5.2E1,1.41E2,2.6E1,9.37E2,3.05E2,4.79E2,6E1,7E0,1.4E1,1.47E2,1.3E1,4.51E2,1.11E2,1.25E2,1.5E1,5.8E1,9E0,2.14E2,5.7E2,2E1,6E0,2.41E2,1.06E2,8E0,1.6E1,8.6E1,6.6E1,2.03E2,1.8E1,4.6E1,6E0,5.5E1,8.6E1,1.7E1,9E0,7.56E2,1.81E2,2.97E2,8E0,4.55E2,2.4E1,4.4E1,1.6E1,8E0,6E0,6E0,7E0,4.35E2,1.6E1,7.7E1,3.4E1],"tree_param":{"num_deleted":"0","num_feature":"41","num_nodes":"89","size_leaf_vector":"0"}},{"base_weights":[2.0234306E1,1.8818432E1,2.6147762E1,1.7179962E1,2.1274519E1,2.8307486E1,2.207363E1,2.1361458E1,1.5897345E1,2.2176224E1,1.6310946E1,2.4001677E1,3.1618162E1,1.2929555E1,2.3130257E1,2.0108839E1,2.9032824E1,1.2699386E1,1.7270988E1,2.3848442E1,1.9710548E1,1.6869135E1,2.0647805E0,3.246597E1,2.3345583E1,3.6510635E1,3.004285E1,2.4532368E1,1.8675883E0,2.268218E1,3.420164E1,2.6796862E1,1.9242065E1,2.3305597E1,3.4748383E1,1.3929385E1,9.523324E0,1.751647E1,3.185327E0,2.4842886E1,1.6958557E1,2.6903286E1,1.921426E1,7.9152107E0,1.7652754E1,2.3647692E1,4.0425518E1,2.366816E1,1.0911433E1,3.0845835E1,2.5274387E1,-3.080906E0,6.6293235E0,2.3369644E1,1.7320086E1,2.06111E1,1.5929276E1,1.6586123E1,3.192821E1,1.4699138E1,5.987824E0,1.1930673E1,-1.391936E0,1.6729631E1,2.2346586E1,8.806815E0,-3.2367804E0,3.577888E1,2.4406282E1,1.9673714E1,8.243352E0,2.9143433E1,1.5059435E1,1.9938215E1,1.5917226E1,-2.9785953E0,1.4010229E1,1.7879602E1,8.61715E0,1.6936714E1,2.452939E1,2.7276093E1,3.320706E1,1.6987965E1,2.6724487E1,2.3830778E1,1.4223423E1,1.4030055E1,2.1252987E1],"categories":[],"categories_nodes":[],"categories_segments":[],"categories_sizes":[],"default_left":[1,1,1,1,1,1,1,1,1,1,1,1,1,1,1,1,1,1,1,1,1,1,0,1,1,0,1,0,1,1,0,0,1,1,0,1,1,1,1,1,1,1,1,1,1,0,0,1,0,1,1,0,0,1,1,0,0,0,0,0,0,0,0,0,0,0,0,0,0,0,0,0,0,0,0,0,0,0,0,0,0,0,0,0,0,0,0,0,0],"id":17,"left_children":[1,3,5,7,9,11,13,15,17,19,21,23,25,27,29,31,33,35,37,39,41,43,-1,45,47,-1,49,-1,51,53,-1,-1,55,57,-1,59,61,63,65,67,69,71,73,75,77,-1,-1,79,-1,81,83,-1,-1,85,87,-1,-1,-1,-1,-1,-1,-1,-1,-1,-1,-1,-1,-1,-1,-1,-1,-1,-1,-1,-1,-1,-1,-1,-1,-1,-1,-1,-1,-1,-1,-1,-1,-1,-1],"loss_changes":[3.8583375E4,1.480175E4,7.2855E3,1.18135625E4,6.36975E3,7.5660938E3,2.7540938E3,4.4995156E3,7.4154688E3,4.766375E3,1.8339023E3,6.748281E2,1.423375E3,4.4464307E3,6.231719E2,2.1394062E3,1.5470391E3,1.9221953E3,4.1384688E3,4.7310938E3,1.3357344E3,1.4459961E3,0E0,1.670625E2,7.1640625E2,0E0,1.89125E2,0E0,4.6812927E2,6.052656E2,0E0,0E0,1.526625E3,1.7300723E3,0E0,2.2166016E3,3.9581338E3,4.1564062E3,8.2274536E2,2.2541875E3,2.1568105E3,3.8360742E2,8.498281E2,1.3696897E3,2.7021484E2,0E0,0E0,9.5271875E2,0E0,8.811875E2,5.068164E1,0E0,0E0,6.732656E2,1.5469727E2,0E0,0E0,0E0,0E0,0E0,0E0,0E0,0E0,0E0,0E0,0E0,0E0,0E0,0E0,0E0,0E0,0E0,0E0,0E0,0E0,0E0,0E0,0E0,0E0,0E0,0E0,0E0,0E0,0E0,0E0,0E0,0E0,0E0,0E0],"parents":[2147483647,0,0,1,1,2,2,3,3,4,4,5,5,6,6,7,7,8,8,9,9,10,10,11,11,12,12,13,13,14,14,15,15,16,16,17,17,18,18,19,19,20,20,21,21,23,23,24,24,26,26,28,28,29,29,32,32,33,33,35,35,36,36,37,37,38,38,39,39,40,40,41,41,42,42,43,43,44,44,47,47,49,49,50,50,53,53,54,54],"right_children":[2,4,6,8,10,12,14,16,18,20,22,24,26,28,30,32,34,36,38,40,42,44,-1,46,48,-1,50,-1,52,54,-1,-1,56,58,-1,60,62,64,66,68,70,72,74,76,78,-1,-1,80,-1,82,84,-1,-1,86,88,-1,-1,-1,-1,-1,-1,-1,-1,-1,-1,-1,-1,-1,-1,-1,-1,-1,-1,-1,-1,-1,-1,-1,-1,-1,-1,-1,-1,-1,-1,-1,-1,-1,-1],"split_conditions":[-9.536743E-7,-9.536743E-7,3.378663E-1,-7.759398E-1,9.988849E-1,3.1937456E-1,-3.3572954E-1,3.1937456E-1,-9.536743E-7,-9.536743E-7,-9.536743E-7,-1.5584011E0,-1.242615E0,-5.5409753E-1,-9.536743E-7,-2.0087786E0,-9.536743E-7,-9.536743E-7,-9.536743E-7,-9.536743E-7,-1.1770829E0,-9.536743E-7,2.0647804E-1,-1.6992993E0,-9.536743E-7,3.6510637E0,-9.536743E-7,2.4532368E0,1.0255797E0,1.6048794E0,3.420164E0,2.6796863E0,-9.536743E-7,-9.536743E-7,3.4748383E0,-9.536743E-7,-9.536743E-7,-9.536743E-7,-9.536743E-7,-1.8950462E0,-9.536743E-7,-9.536743E-7,-9.536743E-7,-3.3572954E-1,3.1182866E0,2.3647692E0,4.042552E0,-3.3572954E-1,1.0911434E0,-9.536743E-7,-9.536743E-7,-3.080906E-1,6.6293234E-1,-9.536743E-7,2.1194963E0,2.06111E0,1.5929277E0,1.6586123E0,3.192821E0,1.4699138E0,5.987824E-1,1.1930673E0,-1.391936E-1,1.6729631E0,2.2346587E0,8.806815E-1,-3.2367805E-1,3.5778883E0,2.4406283E0,1.9673713E0,8.243352E-1,2.9143434E0,1.5059435E0,1.9938215E0,1.5917226E0,-2.9785952E-1,1.4010229E0,1.7879603E0,8.61715E-1,1.6936715E0,2.452939E0,2.7276094E0,3.3207061E0,1.6987965E0,2.6724489E0,2.3830779E0,1.4223423E0,1.4030055E0,2.1252987E0],"split_indices":[37,38,0,0,0,1,1,1,35,28,25,0,0,1,13,0,32,28,17,2,0,35,0,0,10,0,2,0,0,0,0,0,29,34,0,17,19,39,34,0,19,3,10,1,0,0,0,1,0,32,38,0,0,3,0,0,0,0,0,0,0,0,0,0,0,0,0,0,0,0,0,0,0,0,0,0,0,0,0,0,0,0,0,0,0,0,0,0,0],"split_type":[0,0,0,0,0,0,0,0,0,0,0,0,0,0,0,0,0,0,0,0,0,0,0,0,0,0,0,0,0,0,0,0,0,0,0,0,0,0,0,0,0,0,0,0,0,0,0,0,0,0,0,0,0,0,0,0,0,0,0,0,0,0,0,0,0,0,0,0,0,0,0,0,0,0,0,0,0,0,0,0,0,0,0,0,0,0,0,0,0],"sum_hessian":[4.666E3,3.768E3,8.98E2,2.265E3,1.503E3,5.83E2,3.15E2,5.28E2,1.737E3,1.269E3,2.34E2,2.57E2,3.26E2,3.4E1,2.81E2,4.57E2,7.1E1,5.25E2,1.212E3,7.51E2,5.18E2,2.25E2,9E0,1.5E1,2.42E2,7.4E1,2.52E2,1.6E1,1.8E1,2.73E2,8E0,4.9E1,4.08E2,3.8E1,3.3E1,3.76E2,1.49E2,1.191E3,2.1E1,6.54E2,9.7E1,3E1,4.88E2,1.9E1,2.06E2,9E0,6E0,2.35E2,7E0,2.11E2,4.1E1,9E0,9E0,2.39E2,3.4E1,2.85E2,1.23E2,2.3E1,1.5E1,3.42E2,3.4E1,1.22E2,2.7E1,1.028E3,1.63E2,1.1E1,1E1,2.2E1,6.32E2,7.3E1,2.4E1,2.4E1,6E0,3.96E2,9.2E1,7E0,1.2E1,2E2,6E0,2.9E1,2.06E2,8.9E1,1.22E2,8E0,3.3E1,2.26E2,1.3E1,2.1E1,1.3E1],"tree_param":{"num_deleted":"0","num_feature":"41","num_nodes":"89","size_leaf_vector":"0"}},{"base_weights":[1.822851E1,1.7258503E1,2.5503035E1,1.549432E1,1.9661297E1,2.6246435E1,1.1816873E1,1.6948553E1,1.2786498E1,1.9982645E1,2.4235501E0,2.731951E1,1.7435251E1,2.455754E0,1.7107218E1,2.6498215E1,1.655183E1,1.3201064E1,-1.2405523E-1,1.9623453E1,3.344293E1,-7.5518193E0,1.1155904E1,2.4503315E1,3.141063E1,1.0650979E1,2.2826637E1,1.069124E1,1.9246035E1,2.7866358E1,1.2158511E1,1.503332E1,1.878414E1,1.5150177E1,1.0448313E1,6.9824514E0,-1.109556E1,2.2000093E1,1.8098171E1,3.9156868E1,3.5498352E0,-9.95795E0,-3.0356586E0,6.571293E0,1.3475993E1,2.2534742E1,3.4415646E1,3.8373062E1,2.9146065E1,2.0328877E0,1.610781E1,2.6192247E1,7.06485E0,2.4851833E1,3.546203E1,1.4597061E1,2.4976894E1,1.789017E1,2.5066618E1,1.59488945E1,6.125302E0,1.095738E1,-4.336894E0,-9.834039E-1,1.4172479E1,2.1609215E1,3.2623013E1,1.914115E1,1.5003666E1,2.8301212E1,4.642633E1,2.1354094E1,3.197566E1,1.8569418E1,3.8530144E1,4.2402386E1,2.9953331E1,2.683111E1,4.0658714E1,1.9395287E1,1.1030575E1,2.9255495E1,1.3698364E1],"categories":[],"categories_nodes":[],"categories_segments":[],"categories_sizes":[],"default_left":[1,1,1,1,1,1,1,1,1,1,1,1,1,0,1,1,1,1,1,1,1,1,1,1,1,1,1,0,0,1,0,1,1,1,1,1,0,1,1,1,0,0,0,0,0,1,1,1,1,0,1,1,0,0,0,0,0,0,0,0,0,0,0,0,0,0,0,0,0,0,0,0,0,0,0,0,0,0,0,0,0,0,0],"id":18,"left_children":[1,3,5,7,9,11,13,15,17,19,21,23,25,-1,27,29,31,33,35,37,39,41,43,45,47,49,51,-1,-1,53,-1,55,57,59,61,63,-1,65,67,69,-1,-1,-1,-1,-1,71,73,75,77,-1,79,81,-1,-1,-1,-1,-1,-1,-1,-1,-1,-1,-1,-1,-1,-1,-1,-1,-1,-1,-1,-1,-1,-1,-1,-1,-1,-1,-1,-1,-1,-1,-1],"loss_changes":[3.249175E4,1.7164125E4,5.2552188E3,9.1591875E3,9.5955E3,4.421375E3,1.4436948E3,5.4185312E3,4.4761562E3,7.6064375E3,2.9588262E3,4.5301562E3,1.9148945E3,0E0,5.4965332E1,8.383125E2,4.7582188E3,4.1876875E3,2.1826392E3,5.6448125E3,7.205715E3,1.4363464E2,1.02906006E2,4.6295938E3,1.7826875E3,1.2840237E3,1.5124941E3,0E0,0E0,3.5516016E2,0E0,3.4962031E3,2.910125E3,3.3046406E3,2.5990625E3,9.876074E2,0E0,1.9815625E3,3.0080938E3,1.5270078E3,0E0,0E0,0E0,0E0,0E0,1.9254453E3,2.1532852E3,1.5479688E2,2.720211E3,0E0,6.981055E1,5.9431445E2,0E0,0E0,0E0,0E0,0E0,0E0,0E0,0E0,0E0,0E0,0E0,0E0,0E0,0E0,0E0,0E0,0E0,0E0,0E0,0E0,0E0,0E0,0E0,0E0,0E0,0E0,0E0,0E0,0E0,0E0,0E0],"parents":[2147483647,0,0,1,1,2,2,3,3,4,4,5,5,6,6,7,7,8,8,9,9,10,10,11,11,12,12,14,14,15,15,16,16,17,17,18,18,19,19,20,20,21,21,22,22,23,23,24,24,25,25,26,26,29,29,31,31,32,32,33,33,34,34,35,35,37,37,38,38,39,39,45,45,46,46,47,47,48,48,50,50,51,51],"right_children":[2,4,6,8,10,12,14,16,18,20,22,24,26,-1,28,30,32,34,36,38,40,42,44,46,48,50,52,-1,-1,54,-1,56,58,60,62,64,-1,66,68,70,-1,-1,-1,-1,-1,72,74,76,78,-1,80,82,-1,-1,-1,-1,-1,-1,-1,-1,-1,-1,-1,-1,-1,-1,-1,-1,-1,-1,-1,-1,-1,-1,-1,-1,-1,-1,-1,-1,-1,-1,-1],"split_conditions":[1.4548883E0,-9.536743E-7,-9.536743E-7,3.5730344E-1,1.1200573E0,-9.536743E-7,-9.536743E-7,-2.0087786E0,-9.536743E-7,-9.536743E-7,-9.536743E-7,-9.536743E-7,-9.536743E-7,2.4557541E-1,-4.037539E-1,-9.536743E-7,-4.521925E-1,-9.536743E-7,-9.536743E-7,-1.7016698E-1,1.3223627E0,1.003945E0,9.538887E-1,-9.536743E-7,-9.536743E-7,-3.9534193E-1,-9.536743E-7,1.0691241E0,1.9246035E0,-9.536743E-7,1.2158512E0,-9.536743E-7,-9.536743E-7,-9.536743E-7,2.7570096E-1,-2.629402E-1,-1.1095561E0,-9.536743E-7,-9.536743E-7,9.016893E-1,3.5498354E-1,-9.9579495E-1,-3.0356586E-1,6.571293E-1,1.3475994E0,-9.536743E-7,2.9397907E0,-6.613922E-2,2.9397907E0,2.0328878E-1,5.428285E-1,-9.536743E-7,7.06485E-1,2.4851835E0,3.546203E0,1.4597062E0,2.4976895E0,1.789017E0,2.506662E0,1.5948895E0,6.125302E-1,1.095738E0,-4.3368942E-1,-9.834039E-2,1.4172479E0,2.1609216E0,3.2623012E0,1.914115E0,1.5003666E0,2.8301213E0,4.642633E0,2.1354094E0,3.197566E0,1.8569418E0,3.8530145E0,4.2402387E0,2.9953332E0,2.683111E0,4.0658717E0,1.9395287E0,1.1030575E0,2.9255495E0,1.3698364E0],"split_indices":[1,38,9,0,1,2,34,0,17,6,32,32,39,0,0,30,1,28,34,0,0,0,0,11,6,0,25,0,0,32,0,5,39,25,1,1,0,12,3,1,0,0,0,0,0,4,1,0,1,0,0,18,0,0,0,0,0,0,0,0,0,0,0,0,0,0,0,0,0,0,0,0,0,0,0,0,0,0,0,0,0,0,0],"split_type":[0,0,0,0,0,0,0,0,0,0,0,0,0,0,0,0,0,0,0,0,0,0,0,0,0,0,0,0,0,0,0,0,0,0,0,0,0,0,0,0,0,0,0,0,0,0,0,0,0,0,0,0,0,0,0,0,0,0,0,0,0,0,0,0,0,0,0,0,0,0,0,0,0,0,0,0,0,0,0,0,0,0,0],"sum_hessian":[4.666E3,4.12E3,5.46E2,2.38E3,1.74E3,5.17E2,2.9E1,1.545E3,8.35E2,1.708E3,3.2E1,4.59E2,5.8E1,1.1E1,1.8E1,5.9E1,1.486E3,8.09E2,2.6E1,1.666E3,4.2E1,1.5E1,1.7E1,2.76E2,1.83E2,2.7E1,3.1E1,6E0,1.2E1,5.3E1,6E0,8.89E2,5.97E2,4.71E2,3.38E2,1.6E1,1E1,6.46E2,1.02E3,3.5E1,7E0,9E0,6E0,7E0,1E1,2.33E2,4.3E1,4.1E1,1.42E2,1.1E1,1.6E1,2.5E1,6E0,4.1E1,1.2E1,8.54E2,3.5E1,5.26E2,7.1E1,4.32E2,3.9E1,3.27E2,1.1E1,8E0,8E0,6.26E2,2E1,7.59E2,2.61E2,1.6E1,1.9E1,2.1E2,2.3E1,1E1,3.3E1,2.5E1,1.6E1,1.21E2,2.1E1,8E0,8E0,1.9E1,6E0],"tree_param":{"num_deleted":"0","num_feature":"41","num_nodes":"83","size_leaf_vector":"0"}},{"base_weights":[1.6421186E1,1.5231057E1,2.1392456E1,1.9078463E1,1.4433565E1,2.7962454E1,2.0431501E1,1.5966159E1,2.1582987E1,1.0693957E1,1.5449381E1,2.893591E1,1.513963E1,1.2401857E1,2.1136238E1,1.6481403E1,7.722587E0,2.8221478E1,2.0549713E1,1.2416892E1,8.007436E0,1.4564258E1,1.8217894E1,3.0418167E1,2.0781805E1,1.8224562E1,-7.1941204E-2,2.081786E1,3.577285E1,1.07373295E1,1.7094044E1,1.2210045E1,2.4628708E0,3.2261856E1,1.0853969E1,1.9787006E1,2.7524574E1,1.1652368E1,2.1012026E1,-8.754864E0,8.699114E0,1.2835007E1,1.5884293E1,1.0600425E1,1.8826292E1,3.213838E1,2.1646841E1,1.5489511E1,2.7641525E1,1.5014503E1,2.0898058E1,-2.81038E0,6.1976247E0,2.1131044E1,1.1765978E1,-4.5833588E-1,1.7604588E1,2.0130545E1,1.5662279E1,2.628694E1,4.081079E1,1.8462896E1,2.4605316E1,1.7418417E1,3.0063845E1,1.0808091E1,1.7332344E1,2.6694262E1,5.8416824E0,9.447259E0,-2.330647E0,1.166402E1,1.5108519E1,1.657679E1,1.0356218E1,1.23622265E1,5.690434E0,1.9213911E1,6.388717E0,3.4552696E1,2.3378214E1,-1.3600303E0,-4.090726E0,2.213436E1,1.7985792E1,6.063857E0,1.3963372E1],"categories":[],"categories_nodes":[],"categories_segments":[],"categories_sizes":[],"default_left":[1,1,1,1,1,1,1,1,1,1,1,1,0,1,1,1,1,1,1,1,1,1,1,1,1,1,1,1,0,1,1,0,0,1,0,1,1,1,1,0,1,1,1,1,1,1,0,0,0,0,0,1,0,1,1,0,0,0,0,0,0,0,0,0,0,0,0,0,0,0,0,0,0,0,0,0,0,0,0,0,0,0,0,0,0,0,0],"id":19,"left_children":[1,3,5,7,9,11,13,15,17,19,21,23,-1,25,27,29,31,33,35,37,39,41,43,45,47,49,51,53,-1,55,57,-1,-1,59,-1,61,63,65,67,-1,69,71,73,75,77,79,-1,-1,-1,-1,-1,81,-1,83,85,-1,-1,-1,-1,-1,-1,-1,-1,-1,-1,-1,-1,-1,-1,-1,-1,-1,-1,-1,-1,-1,-1,-1,-1,-1,-1,-1,-1,-1,-1,-1,-1],"loss_changes":[2.728625E4,1.1289E4,5.1045E3,4.6752812E3,1.17096875E4,9.599531E2,4.1969688E3,1.1087266E3,1.8482812E3,3.0064297E3,5.753E3,6.1277344E2,0E0,4.7949736E3,2.6244375E3,7.7715625E2,4.183806E2,2.807539E3,1.1045078E3,2.4296328E3,3.1485996E3,4.0555938E3,2.5393906E3,5.868203E2,2.616162E2,7.241992E1,3.9513177E2,1.7641875E3,0E0,2.237691E3,7.498594E2,0E0,0E0,7.660586E2,0E0,1.3512422E3,1.9487695E2,1.6157695E3,2.6025059E3,0E0,2.1262422E3,1.9881875E3,3.8632188E3,3.2757324E2,2.5095469E3,6.515625E2,0E0,0E0,0E0,0E0,0E0,2.4147682E1,0E0,1.7635312E3,2.4110327E2,0E0,0E0,0E0,0E0,0E0,0E0,0E0,0E0,0E0,0E0,0E0,0E0,0E0,0E0,0E0,0E0,0E0,0E0,0E0,0E0,0E0,0E0,0E0,0E0,0E0,0E0,0E0,0E0,0E0,0E0,0E0,0E0],"parents":[2147483647,0,0,1,1,2,2,3,3,4,4,5,5,6,6,7,7,8,8,9,9,10,10,11,11,13,13,14,14,15,15,16,16,17,17,18,18,19,19,20,20,21,21,22,22,23,23,24,24,25,25,26,26,27,27,29,29,30,30,33,33,35,35,36,36,37,37,38,38,40,40,41,41,42,42,43,43,44,44,45,45,51,51,53,53,54,54],"right_children":[2,4,6,8,10,12,14,16,18,20,22,24,-1,26,28,30,32,34,36,38,40,42,44,46,48,50,52,54,-1,56,58,-1,-1,60,-1,62,64,66,68,-1,70,72,74,76,78,80,-1,-1,-1,-1,-1,82,-1,84,86,-1,-1,-1,-1,-1,-1,-1,-1,-1,-1,-1,-1,-1,-1,-1,-1,-1,-1,-1,-1,-1,-1,-1,-1,-1,-1,-1,-1,-1,-1,-1,-1],"split_conditions":[-9.536743E-7,-9.638842E-1,-1.2320608E0,-5.5409753E-1,-9.536743E-7,-9.536743E-7,-3.3572954E-1,-9.536743E-7,-1.999434E0,3.8806114E-1,-9.536743E-7,-9.536743E-7,1.5139631E0,-5.5409753E-1,-9.536743E-7,-9.536743E-7,-1.4601167E0,-9.536743E-7,-9.536743E-7,-9.536743E-7,4.2085028E-1,-9.536743E-7,-9.617179E-1,-9.536743E-7,1.3384253E0,-3.376559E-2,1.5775105E0,-9.536743E-7,3.577285E0,-1.5544398E0,-1.6855133E0,1.2210045E0,2.462871E-1,-9.536743E-7,1.0853969E0,-9.536743E-7,-1.7744439E0,2.2279496E-1,-9.536743E-7,-8.754864E-1,-9.536743E-7,-9.536743E-7,1.4167411E0,-9.536743E-7,-9.536743E-7,-9.536743E-7,2.164684E0,1.548951E0,2.7641525E0,1.5014503E0,2.0898058E0,7.451129E-1,6.197625E-1,6.545018E-1,-5.3162324E-1,-4.5833588E-2,1.7604588E0,2.0130546E0,1.5662279E0,2.628694E0,4.081079E0,1.8462896E0,2.4605317E0,1.7418417E0,3.0063846E0,1.0808091E0,1.7332344E0,2.6694262E0,5.8416826E-1,9.4472593E-1,-2.330647E-1,1.166402E0,1.5108519E0,1.657679E0,1.0356219E0,1.2362226E0,5.690434E-1,1.9213911E0,6.388717E-1,3.4552696E0,2.3378215E0,-1.3600303E-1,-4.090726E-1,2.213436E0,1.7985792E0,6.063857E-1,1.3963373E0],"split_indices":[37,0,0,1,35,25,1,3,0,0,39,30,0,1,12,40,0,3,27,36,0,34,1,2,1,0,0,7,0,0,0,0,0,32,0,11,0,0,3,0,17,38,0,22,17,22,0,0,0,0,0,0,0,0,0,0,0,0,0,0,0,0,0,0,0,0,0,0,0,0,0,0,0,0,0,0,0,0,0,0,0,0,0,0,0,0,0],"split_type":[0,0,0,0,0,0,0,0,0,0,0,0,0,0,0,0,0,0,0,0,0,0,0,0,0,0,0,0,0,0,0,0,0,0,0,0,0,0,0,0,0,0,0,0,0,0,0,0,0,0,0,0,0,0,0,0,0,0,0,0,0,0,0,0,0,0,0,0,0,0,0,0,0,0,0,0,0,0,0,0,0,0,0,0,0,0,0],"sum_hessian":[4.666E3,3.768E3,8.98E2,6.43E2,3.125E3,1.11E2,7.87E2,2.9E2,3.53E2,6.7E2,2.455E3,1.02E2,9E0,6.5E1,7.22E2,2.72E2,1.8E1,4.4E1,3.09E2,4.06E2,2.64E2,1.865E3,5.9E2,8.4E1,1.8E1,4.4E1,2.1E1,7.09E2,1.3E1,2.8E1,2.44E2,9E0,9E0,3.5E1,9E0,2.82E2,2.7E1,3.75E2,3.1E1,1E1,2.54E2,8.12E2,1.053E3,4.5E1,5.45E2,6.8E1,1.6E1,1.2E1,6E0,2.3E1,2.1E1,1.5E1,6E0,6.84E2,2.5E1,1.1E1,1.7E1,7.4E1,1.7E2,2.3E1,1.2E1,2.25E2,5.7E1,7E0,2E1,3.29E2,4.6E1,2.2E1,9E0,2.38E2,1.6E1,5.4E2,2.72E2,9.34E2,1.19E2,3.2E1,1.3E1,5.28E2,1.7E1,5.1E1,1.7E1,8E0,7E0,5.14E2,1.7E2,8E0,1.7E1],"tree_param":{"num_deleted":"0","num_feature":"41","num_nodes":"87","size_leaf_vector":"0"}},{"base_weights":[1.4793272E1,1.3969394E1,2.0973177E1,1.201809E1,1.5544354E1,1.9483118E1,2.6782007E1,1.2732674E1,4.809229E0,1.581442E1,-1.2329605E0,2.4841785E1,1.7702755E1,2.7804224E1,1.0401012E1,1.22925E1,1.9703932E1,1.3147206E1,2.435635E0,1.743076E1,1.3266401E1,-9.856613E0,8.417374E0,2.648973E1,1.6831646E1,1.8926601E1,1.1029061E1,3.0210032E1,2.0002535E1,1.5975982E1,1.1518301E1,1.765676E1,2.375563E1,1.463411E1,7.6691513E0,4.2831893E0,-4.9079347E0,1.8041626E1,8.660235E0,1.1356965E1,1.6289972E1,-1.3044371E1,-3.4444323E0,4.3224525E0,1.0630283E1,2.1993744E1,2.8358522E1,1.1214003E1,2.4558565E1,2.1365675E1,1.3792485E1,6.648667E0,2.306957E1,3.189509E1,1.5899127E1,1.778494E1,1.1331503E1,1.1789141E1,-3.629992E-2,2.5033953E1,1.6132946E1,2.6615513E1,1.7968437E1,1.6820295E1,9.016951E0,3.880395E-1,7.3795285E0,-1.1999083E1,-6.957448E-1,1.8464434E1,5.1593513E0,7.4656363E0,1.4215163E1,1.2523627E1,5.3173923E0,1.6944542E1,1.0710869E1,-7.9336753E0,-1.6291584E1,1.6586313E1,2.778913E1,4.835761E0,1.5393213E1,4.0561676E0,2.1914032E1,9.447993E0,1.8624498E1,-9.296604E-1,1.2055385E1,2.6559614E1,3.5044674E1],"categories":[],"categories_nodes":[],"categories_segments":[],"categories_sizes":[],"default_left":[1,1,1,1,1,1,1,1,1,1,1,1,1,1,0,1,1,1,1,1,1,1,1,1,1,1,1,1,0,1,1,1,1,1,0,1,1,1,1,1,1,1,0,0,0,1,0,1,0,1,1,1,0,1,0,0,0,0,0,0,0,0,0,0,0,0,0,0,0,0,0,0,0,0,0,0,0,0,0,0,0,0,0,0,0,0,0,0,0,0,0],"id":20,"left_children":[1,3,5,7,9,11,13,15,17,19,21,23,25,27,-1,29,31,33,35,37,39,41,43,45,47,49,51,53,-1,55,57,59,61,63,-1,65,67,69,71,73,75,77,-1,-1,-1,79,-1,81,-1,83,85,87,-1,89,-1,-1,-1,-1,-1,-1,-1,-1,-1,-1,-1,-1,-1,-1,-1,-1,-1,-1,-1,-1,-1,-1,-1,-1,-1,-1,-1,-1,-1,-1,-1,-1,-1,-1,-1,-1,-1],"loss_changes":[2.3468938E4,1.2478E4,4.2127656E3,9.442969E3,1.03365E4,3.7484531E3,1.536E3,4.906875E3,3.2928613E3,8.99825E3,3.162149E3,9.665625E2,2.5110547E3,1.3101953E3,0E0,4.3246094E3,3.9341406E2,1.8914648E2,1.8119504E3,7.1729688E3,4.860875E3,3.638789E2,1.171615E2,1.0726953E2,6.3614844E2,3.2116094E3,2.6946968E3,1.3256172E3,0E0,2.0837266E3,4.1E3,3.7178906E2,1.828125E1,1.9217578E2,0E0,1.275571E3,7.981218E2,6.8656875E3,4.9774316E2,3.7312812E3,1.0455469E3,8.64895E1,0E0,0E0,0E0,4.792256E2,0E0,2.9874646E2,0E0,1.6955625E3,1.7763516E3,1.6911365E3,0E0,1.95125E2,0E0,0E0,0E0,0E0,0E0,0E0,0E0,0E0,0E0,0E0,0E0,0E0,0E0,0E0,0E0,0E0,0E0,0E0,0E0,0E0,0E0,0E0,0E0,0E0,0E0,0E0,0E0,0E0,0E0,0E0,0E0,0E0,0E0,0E0,0E0,0E0,0E0],"parents":[2147483647,0,0,1,1,2,2,3,3,4,4,5,5,6,6,7,7,8,8,9,9,10,10,11,11,12,12,13,13,15,15,16,16,17,17,18,18,19,19,20,20,21,21,22,22,23,23,24,24,25,25,26,26,27,27,29,29,30,30,31,31,32,32,33,33,35,35,36,36,37,37,38,38,39,39,40,40,41,41,45,45,47,47,49,49,50,50,51,51,53,53],"right_children":[2,4,6,8,10,12,14,16,18,20,22,24,26,28,-1,30,32,34,36,38,40,42,44,46,48,50,52,54,-1,56,58,60,62,64,-1,66,68,70,72,74,76,78,-1,-1,-1,80,-1,82,-1,84,86,88,-1,90,-1,-1,-1,-1,-1,-1,-1,-1,-1,-1,-1,-1,-1,-1,-1,-1,-1,-1,-1,-1,-1,-1,-1,-1,-1,-1,-1,-1,-1,-1,-1,-1,-1,-1,-1,-1,-1],"split_conditions":[1.4548883E0,-4.521925E-1,2.9397907E0,-9.536743E-7,1.1200573E0,-8.00871E-1,-9.536743E-7,-9.536743E-7,-1.2798179E0,-9.536743E-7,-9.536743E-7,-9.536743E-7,2.2846868E0,-9.536743E-7,1.0401013E0,-1.0454646E0,-9.536743E-7,-9.536743E-7,-5.5409753E-1,-9.536743E-7,-9.536743E-7,1.0611112E0,9.538887E-1,-9.536743E-7,-9.536743E-7,-9.536743E-7,-9.536743E-7,3.056254E0,2.0002534E0,-9.536743E-7,-9.536743E-7,-9.536743E-7,-9.536743E-7,-1.5263784E0,7.6691514E-1,-6.996763E-1,1.2418995E0,-9.536743E-7,6.4315355E-1,-9.536743E-7,1.3158159E0,4.1786778E-1,-3.4444323E-1,4.3224525E-1,1.0630283E0,-9.536743E-7,2.8358524E0,-9.536743E-7,2.4558566E0,-7.633357E-1,-9.536743E-7,2.5758443E0,2.306957E0,-9.536743E-7,1.5899128E0,1.7784941E0,1.1331503E0,1.1789141E0,-3.6299923E-3,2.5033953E0,1.6132946E0,2.6615512E0,1.7968438E0,1.6820296E0,9.016951E-1,3.880395E-2,7.379529E-1,-1.1999083E0,-6.957448E-2,1.8464434E0,5.159351E-1,7.465636E-1,1.4215163E0,1.2523627E0,5.3173923E-1,1.6944542E0,1.0710869E0,-7.9336756E-1,-1.6291584E0,1.6586313E0,2.778913E0,4.8357612E-1,1.5393213E0,4.0561676E-1,2.1914032E0,9.4479936E-1,1.8624499E0,-9.296604E-2,1.2055385E0,2.6559615E0,3.5044675E0],"split_indices":[1,1,1,3,1,0,2,5,0,28,32,19,1,28,0,0,39,19,1,7,11,0,0,32,36,28,13,1,0,29,17,35,38,0,0,1,0,10,0,19,0,0,0,0,0,36,0,37,0,0,39,1,0,36,0,0,0,0,0,0,0,0,0,0,0,0,0,0,0,0,0,0,0,0,0,0,0,0,0,0,0,0,0,0,0,0,0,0,0,0,0],"split_type":[0,0,0,0,0,0,0,0,0,0,0,0,0,0,0,0,0,0,0,0,0,0,0,0,0,0,0,0,0,0,0,0,0,0,0,0,0,0,0,0,0,0,0,0,0,0,0,0,0,0,0,0,0,0,0,0,0,0,0,0,0,0,0,0,0,0,0,0,0,0,0,0,0,0,0,0,0,0,0,0,0,0,0,0,0,0,0,0,0,0,0],"sum_hessian":[4.666E3,4.12E3,5.46E2,1.844E3,2.276E3,4.38E2,1.08E2,1.677E3,1.67E2,2.24E3,3.6E1,1.06E2,3.32E2,1.01E2,7E0,1.58E3,9.7E1,3.6E1,1.31E2,1.367E3,8.73E2,1.9E1,1.7E1,8.6E1,2E1,2.79E2,5.3E1,7.5E1,2.6E1,2.71E2,1.309E3,6.8E1,2.9E1,2.7E1,9E0,1.05E2,2.6E1,1.277E3,9E1,5.38E2,3.35E2,1.2E1,7E0,7E0,1E1,2.9E1,5.7E1,1.3E1,7E0,1.87E2,9.2E1,4E1,1.3E1,6.6E1,9E0,1.93E2,7.8E1,1.279E3,3E1,9E0,5.9E1,1.7E1,1.2E1,1.8E1,9E0,4.7E1,5.8E1,9E0,1.7E1,1.236E3,4.1E1,7.6E1,1.4E1,4.5E2,8.8E1,2.98E2,3.7E1,6E0,6E0,1.7E1,1.2E1,6E0,7E0,6E0,1.81E2,5E1,4.2E1,1.7E1,2.3E1,2.8E1,3.8E1],"tree_param":{"num_deleted":"0","num_feature":"41","num_nodes":"91","size_leaf_vector":"0"}},{"base_weights":[1.3325663E1,1.1593616E1,1.5750089E1,1.2328329E1,8.400147E0,1.7301165E1,1.266182E1,9.572785E0,1.3351446E1,9.820715E0,4.9295096E0,1.6695745E1,2.590414E1,1.1269115E1,1.5485863E1,9.939864E0,-9.334205E0,1.35826435E1,4.8036885E0,1.142675E1,6.212561E0,-1.2717377E0,8.394861E0,1.7084888E1,6.7195444E0,2.7291004E1,9.490925E0,9.582605E0,1.5020888E1,1.3161616E1,1.8700731E1,1.1678577E1,7.8230343E0,1.3103152E1,1.845981E1,8.799545E0,-4.387401E0,1.3993149E1,6.6269374E0,-1.4267284E0,7.9529033E0,-4.3665657E0,1.6535069E0,1.0371375E1,-5.1742606E0,2.0020367E1,1.5768762E1,7.9247203E0,-1.2992793E0,2.8797527E1,1.44682E1,1.3087459E1,7.6420717E0,1.5454922E1,4.8764343E0,1.3998773E1,6.9212623E0,2.007868E1,9.312501E0,1.2275594E0,1.2255178E1,1.0757422E1,6.5308843E0,1.2362043E1,1.6190168E1,1.94473E1,9.714741E0,1.230821E1,-1.1447686E0,-1.160418E1,2.475706E0,1.4789886E1,-5.761741E0,8.376342E0,-7.3884517E-1,-5.84344E0,7.032947E0,3.057151E0,9.90939E0,-9.688741E0,1.2675076E0,3.766043E0,-5.5238986E0,1.1556569E1,2.9182596E0,-1.1990244E1,2.380903E0,2.1932077E1,1.5111683E1,1.6149982E1,6.031353E0,1.2412262E0,9.034999E0,2.3995237E1,3.1630062E1,1.0768843E1,1.9327475E1,-1.5211591E1,8.549777E0,1.6360575E1,1.0569714E1,1.9243698E1,1.2978798E1,2.3693216E0,1.3085561E1,2.1827843E1,1.6551464E1,1.5035453E1,2.2591913E0],"categories":[],"categories_nodes":[],"categories_segments":[],"categories_sizes":[],"default_left":[1,1,1,1,1,1,1,1,1,1,1,1,1,1,1,1,0,1,1,1,1,1,1,1,1,1,0,1,1,1,1,1,1,1,1,1,1,1,1,1,1,1,1,1,1,1,1,1,0,1,0,1,1,1,0,1,1,1,1,0,0,0,0,0,0,0,0,0,0,0,0,0,0,0,0,0,0,0,0,0,0,0,0,0,0,0,0,0,0,0,0,0,0,0,0,0,0,0,0,0,0,0,0,0,0,0,0,0,0],"id":21,"left_children":[1,3,5,7,9,11,13,15,17,19,21,23,25,27,29,31,-1,33,35,37,39,41,43,45,47,49,-1,51,53,55,57,59,61,63,65,67,69,71,73,75,77,79,81,83,85,87,89,91,-1,93,-1,95,97,99,-1,101,103,105,107,-1,-1,-1,-1,-1,-1,-1,-1,-1,-1,-1,-1,-1,-1,-1,-1,-1,-1,-1,-1,-1,-1,-1,-1,-1,-1,-1,-1,-1,-1,-1,-1,-1,-1,-1,-1,-1,-1,-1,-1,-1,-1,-1,-1,-1,-1,-1,-1,-1,-1],"loss_changes":[1.9415125E4,6.2924375E3,9.083406E3,6.114E3,2.4808203E3,6.286375E3,2.3937812E3,4.2778203E3,3.1204062E3,2.0325312E3,3.255591E3,4.574875E3,1.6303008E3,2.6464453E3,1.3454336E3,2.0875273E3,0E0,3.4273125E3,1.6545635E3,2.9868262E3,1.5269741E3,5.0514218E2,2.655162E3,4.173625E3,4.645088E2,1.0515117E3,0E0,1.9879785E3,5.1904297E2,5.665781E2,9.3849414E2,1.931375E3,9.534961E2,3.076E3,1.0027969E3,1.095719E3,7.2214197E2,2.6350078E3,1.1530193E3,8.6310345E2,8.605039E2,8.218898E2,4.6051654E2,7.171123E2,6.9799396E2,3.0092656E3,2.8982812E3,2.930276E2,0E0,1.5240625E2,0E0,1.3544297E3,4.2789365E3,3.978086E2,0E0,3.4405664E2,4.4600793E2,1.0144141E2,4.9078687E2,0E0,0E0,0E0,0E0,0E0,0E0,0E0,0E0,0E0,0E0,0E0,0E0,0E0,0E0,0E0,0E0,0E0,0E0,0E0,0E0,0E0,0E0,0E0,0E0,0E0,0E0,0E0,0E0,